svm_type c_svc
kernel_type rbf
gamma 0
nr_class 3
total_sv 135
rho -1 -1 -1
label 0 1 2
nr_sv 67 67 1
SV
10 0 
10 0 
10 0 
10 0 
10 0 
10 0 
10 0 
10 0 
10 0 
10 0 
10 0 
10 0 
10 0 
10 0 
10 0 
10 0 
10 0 
10 0 
10 0 
10 0 
10 0 
10 0 
10 0 
10 0 
10 0 
10 0 
10 0 
10 0 
10 0 
10 0 
10 0 
10 0 
10 0 
10 0 
10 0 
10 0 
10 0 
10 0 
10 0 
10 0 
10 0 
10 0 
10 0 
10 0 
10 0 
10 0 
10 0 
10 0 
10 0 
10 0 
10 0 
10 0 
10 0 
10 0 
10 0 
10 0 
10 0 
10 0 
10 0 
10 0 
10 0 
10 0 
10 0 
10 0 
10 0 
10 0 
10 10 
-10 0 
-10 0 
-10 0 
-10 0 
-10 0 
-10 0 
-10 0 
-10 0 
-10 0 
-10 0 
-10 0 
-10 0 
-10 0 
-10 0 
-10 0 
-10 0 
-10 0 
-10 0 
-10 0 
-10 0 
-10 0 
-10 0 
-10 0 
-10 0 
-10 0 
-10 0 
-10 0 
-10 0 
-10 0 
-10 0 
-10 0 
-10 0 
-10 0 
-10 0 
-10 0 
-10 0 
-10 0 
-10 0 
-10 0 
-10 0 
-10 0 
-10 0 
-10 0 
-10 0 
-10 0 
-10 0 
-10 0 
-10 0 
-10 0 
-10 0 
-10 0 
-10 0 
-10 0 
-10 0 
-10 0 
-10 0 
-10 0 
-10 0 
-10 0 
-10 0 
-10 0 
-10 0 
-10 0 
-10 0 
-10 0 
-10 0 
-10 10 
-10 -10 
