svm_type c_svc
kernel_type rbf
gamma 0
nr_class 6
total_sv 2517
rho -1 -1 -1 -1 -1 1 1 1 0 -1 -1 -1 -1 -1 -1
label 0 4 1 2 3 5
nr_sv 1213 1 1213 77 12 1
SV
0 10 0 0 0 
0 10 0 0 0 
0 10 0 0 0 
0 10 0 0 0 
0 10 0 0 0 
0 10 0 0 0 
0 10 0 0 0 
0 10 0 0 0 
0 10 0 0 0 
0 10 0 0 0 
0 10 0 0 0 
0 10 0 0 0 
0 10 0 0 0 
0 10 0 0 0 
0 10 0 0 0 
0 10 0 0 0 
0 10 0 0 0 
0 10 0 0 0 
0 10 0 0 0 
0 10 0 0 0 
0 10 0 0 0 
0 10 0 0 0 
0 10 0 0 0 
0 10 0 0 0 
0 10 0 0 0 
0 10 0 0 0 
0 10 0 0 0 
0 10 0 0 0 
0 10 0 0 0 
0 10 0 0 0 
0 10 0 0 0 
0 10 0 0 0 
0 10 0 0 0 
0 10 0 0 0 
0 10 0 0 0 
0 10 0 0 0 
0 10 0 0 0 
0 10 0 0 0 
0 10 0 0 0 
0 10 0 0 0 
0 10 0 0 0 
0 10 0 0 0 
0 10 0 0 0 
0 10 0 0 0 
0 10 0 0 0 
0 10 0 0 0 
0 10 0 0 0 
0 10 0 0 0 
0 10 0 0 0 
0 10 0 0 0 
0 10 0 0 0 
0 10 0 0 0 
0 10 0 0 0 
0 10 0 0 0 
0 10 0 0 0 
0 10 0 0 0 
0 10 0 0 0 
0 10 0 0 0 
0 10 0 0 0 
0 10 0 0 0 
0 10 0 0 0 
0 10 0 0 0 
0 10 0 0 0 
0 10 0 0 0 
0 10 0 0 0 
0 10 0 0 0 
0 10 0 0 0 
0 10 0 0 0 
0 10 0 0 0 
0 10 0 0 0 
0 10 0 0 0 
0 10 0 0 0 
0 10 0 0 0 
0 10 0 0 0 
0 10 0 0 0 
0 10 0 0 0 
0 10 0 0 0 
0 10 0 0 0 
0 10 0 0 0 
0 10 0 0 0 
0 10 0 0 0 
0 10 0 0 0 
0 10 0 0 0 
0 10 0 0 0 
0 10 0 0 0 
0 10 0 0 0 
0 10 0 0 0 
0 10 0 0 0 
0 10 0 0 0 
0 10 0 0 0 
0 10 0 0 0 
0 10 0 0 0 
0 10 0 0 0 
0 10 0 0 0 
0 10 0 0 0 
0 10 0 0 0 
0 10 0 0 0 
0 10 0 0 0 
0 10 0 0 0 
0 10 0 0 0 
0 10 0 0 0 
0 10 0 0 0 
0 10 0 0 0 
0 10 0 0 0 
0 10 0 0 0 
0 10 0 0 0 
0 10 0 0 0 
0 10 0 0 0 
0 10 0 0 0 
0 10 0 0 0 
0 10 0 0 0 
0 10 0 0 0 
0 10 0 0 0 
0 10 0 0 0 
0 10 0 0 0 
0 10 0 0 0 
0 10 0 0 0 
0 10 0 0 0 
0 10 0 0 0 
0 10 0 0 0 
0 10 0 0 0 
0 10 0 0 0 
0 10 0 0 0 
0 10 0 0 0 
0 10 0 0 0 
0 10 0 0 0 
0 10 0 0 0 
0 10 0 0 0 
0 10 0 0 0 
0 10 0 0 0 
0 10 0 0 0 
0 10 0 0 0 
0 10 0 0 0 
0 10 0 0 0 
0 10 0 0 0 
0 10 0 0 0 
0 10 0 0 0 
0 10 0 0 0 
0 10 0 0 0 
0 10 0 0 0 
0 10 0 0 0 
0 10 0 0 0 
0 10 0 0 0 
0 10 0 0 0 
0 10 0 0 0 
0 10 0 0 0 
0 10 0 0 0 
0 10 0 0 0 
0 10 0 0 0 
0 10 0 0 0 
0 10 0 0 0 
0 10 0 0 0 
0 10 0 0 0 
0 10 0 0 0 
0 10 0 0 0 
0 10 0 0 0 
0 10 0 0 0 
0 10 0 0 0 
0 10 0 0 0 
0 10 0 0 0 
0 10 0 0 0 
0 10 0 0 0 
0 10 0 0 0 
0 10 0 0 0 
0 10 0 0 0 
0 10 0 0 0 
0 10 0 0 0 
0 10 0 0 0 
0 10 0 0 0 
0 10 0 0 0 
0 10 0 0 0 
0 10 0 0 0 
0 10 0 0 0 
0 10 0 0 0 
0 10 0 0 0 
0 10 0 0 0 
0 10 0 0 0 
0 10 0 0 0 
0 10 0 0 0 
0 10 0 0 0 
0 10 0 0 0 
0 10 0 0 0 
0 10 0 0 0 
0 10 0 0 0 
0 10 0 0 0 
0 10 0 0 0 
0 10 0 0 0 
0 10 0 0 0 
0 10 0 0 0 
0 10 0 0 0 
0 10 0 0 0 
0 10 0 0 0 
0 10 0 0 0 
0 10 0 0 0 
0 10 0 0 0 
0 10 0 0 0 
0 10 0 0 0 
0 10 0 0 0 
0 10 0 0 0 
0 10 0 0 0 
0 10 0 0 0 
0 10 0 0 0 
0 10 0 0 0 
0 10 0 0 0 
0 10 0 0 0 
0 10 0 0 0 
0 10 0 0 0 
0 10 0 0 0 
0 10 0 0 0 
0 10 0 0 0 
0 10 0 0 0 
0 10 0 0 0 
0 10 0 0 0 
0 10 0 0 0 
0 10 0 0 0 
0 10 0 0 0 
0 10 0 0 0 
0 10 0 0 0 
0 10 0 0 0 
0 10 0 0 0 
0 10 0 0 0 
0 10 0 0 0 
0 10 0 0 0 
0 10 0 0 0 
0 10 0 0 0 
0 10 0 0 0 
0 10 0 0 0 
0 10 0 0 0 
0 10 0 0 0 
0 10 0 0 0 
0 10 0 0 0 
0 10 0 0 0 
0 10 0 0 0 
0 10 0 0 0 
0 10 0 0 0 
0 10 0 0 0 
0 10 0 0 0 
0 10 0 0 0 
0 10 0 0 0 
0 10 0 0 0 
0 10 0 0 0 
0 10 0 0 0 
0 10 0 0 0 
0 10 0 0 0 
0 10 0 0 0 
0 10 0 0 0 
0 10 0 0 0 
0 10 0 0 0 
0 10 0 0 0 
0 10 0 0 0 
0 10 0 0 0 
0 10 0 0 0 
0 10 0 0 0 
0 10 0 0 0 
0 10 0 0 0 
0 10 0 0 0 
0 10 0 0 0 
0 10 0 0 0 
0 10 0 0 0 
0 10 0 0 0 
0 10 0 0 0 
0 10 0 0 0 
0 10 0 0 0 
0 10 0 0 0 
0 10 0 0 0 
0 10 0 0 0 
0 10 0 0 0 
0 10 0 0 0 
0 10 0 0 0 
0 10 0 0 0 
0 10 0 0 0 
0 10 0 0 0 
0 10 0 0 0 
0 10 0 0 0 
0 10 0 0 0 
0 10 0 0 0 
0 10 0 0 0 
0 10 0 0 0 
0 10 0 0 0 
0 10 0 0 0 
0 10 0 0 0 
0 10 0 0 0 
0 10 0 0 0 
0 10 0 0 0 
0 10 0 0 0 
0 10 0 0 0 
0 10 0 0 0 
0 10 0 0 0 
0 10 0 0 0 
0 10 0 0 0 
0 10 0 0 0 
0 10 0 0 0 
0 10 0 0 0 
0 10 0 0 0 
0 10 0 0 0 
0 10 0 0 0 
0 10 0 0 0 
0 10 0 0 0 
0 10 0 0 0 
0 10 0 0 0 
0 10 0 0 0 
0 10 0 0 0 
0 10 0 0 0 
0 10 0 0 0 
0 10 0 0 0 
0 10 0 0 0 
0 10 0 0 0 
0 10 0 0 0 
0 10 0 0 0 
0 10 0 0 0 
0 10 0 0 0 
0 10 0 0 0 
0 10 0 0 0 
0 10 0 0 0 
0 10 0 0 0 
0 10 0 0 0 
0 10 0 0 0 
0 10 0 0 0 
0 10 0 0 0 
0 10 0 0 0 
0 10 0 0 0 
0 10 0 0 0 
0 10 0 0 0 
0 10 0 0 0 
0 10 0 0 0 
0 10 0 0 0 
0 10 0 0 0 
0 10 0 0 0 
0 10 0 0 0 
0 10 0 0 0 
0 10 0 0 0 
0 10 0 0 0 
0 10 0 0 0 
0 10 0 0 0 
0 10 0 0 0 
0 10 0 0 0 
0 10 0 0 0 
0 10 0 0 0 
0 10 0 0 0 
0 10 0 0 0 
0 10 0 0 0 
0 10 0 0 0 
0 10 0 0 0 
0 10 0 0 0 
0 10 0 0 0 
0 10 0 0 0 
0 10 0 0 0 
0 10 0 0 0 
0 10 0 0 0 
0 10 0 0 0 
0 10 0 0 0 
0 10 0 0 0 
0 10 0 0 0 
0 10 0 0 0 
0 10 0 0 0 
0 10 0 0 0 
0 10 0 0 0 
0 10 0 0 0 
0 10 0 0 0 
0 10 0 0 0 
0 10 0 0 0 
0 10 0 0 0 
0 10 0 0 0 
0 10 0 0 0 
0 10 0 0 0 
0 10 0 0 0 
0 10 0 0 0 
0 10 0 0 0 
0 10 0 0 0 
0 10 0 0 0 
0 10 0 0 0 
0 10 0 0 0 
0 10 0 0 0 
0 10 0 0 0 
0 10 0 0 0 
0 10 0 0 0 
0 10 0 0 0 
0 10 0 0 0 
0 10 0 0 0 
0 10 0 0 0 
0 10 0 0 0 
0 10 0 0 0 
0 10 0 0 0 
0 10 0 0 0 
0 10 0 0 0 
0 10 0 0 0 
0 10 0 0 0 
0 10 0 0 0 
0 10 0 0 0 
0 10 0 0 0 
0 10 0 0 0 
0 10 0 0 0 
0 10 0 0 0 
0 10 0 0 0 
0 10 0 0 0 
0 10 0 0 0 
0 10 0 0 0 
0 10 0 0 0 
0 10 0 0 0 
0 10 0 0 0 
0 10 0 0 0 
0 10 0 0 0 
0 10 0 0 0 
0 10 0 0 0 
0 10 0 0 0 
0 10 0 0 0 
0 10 0 0 0 
0 10 0 0 0 
0 10 0 0 0 
0 10 0 0 0 
0 10 0 0 0 
0 10 0 0 0 
0 10 0 0 0 
0 10 0 0 0 
0 10 0 0 0 
0 10 0 0 0 
0 10 0 0 0 
0 10 0 0 0 
0 10 0 0 0 
0 10 0 0 0 
0 10 0 0 0 
0 10 0 0 0 
0 10 0 0 0 
0 10 0 0 0 
0 10 0 0 0 
0 10 0 0 0 
0 10 0 0 0 
0 10 0 0 0 
0 10 0 0 0 
0 10 0 0 0 
0 10 0 0 0 
0 10 0 0 0 
0 10 0 0 0 
0 10 0 0 0 
0 10 0 0 0 
0 10 0 0 0 
0 10 0 0 0 
0 10 0 0 0 
0 10 0 0 0 
0 10 0 0 0 
0 10 0 0 0 
0 10 0 0 0 
0 10 0 0 0 
0 10 0 0 0 
0 10 0 0 0 
0 10 0 0 0 
0 10 0 0 0 
0 10 0 0 0 
0 10 0 0 0 
0 10 0 0 0 
0 10 0 0 0 
0 10 0 0 0 
0 10 0 0 0 
0 10 0 0 0 
0 10 0 0 0 
0 10 0 0 0 
0 10 0 0 0 
0 10 0 0 0 
0 10 0 0 0 
0 10 0 0 0 
0 10 0 0 0 
0 10 0 0 0 
0 10 0 0 0 
0 10 0 0 0 
0 10 0 0 0 
0 10 0 0 0 
0 10 0 0 0 
0 10 0 0 0 
0 10 0 0 0 
0 10 0 0 0 
0 10 0 0 0 
0 10 0 0 0 
0 10 0 0 0 
0 10 0 0 0 
0 10 0 0 0 
0 10 0 0 0 
0 10 0 0 0 
0 10 0 0 0 
0 10 0 0 0 
0 10 0 0 0 
0 10 0 0 0 
0 10 0 0 0 
0 10 0 0 0 
0 10 0 0 0 
0 10 0 0 0 
0 10 0 0 0 
0 10 0 0 0 
0 10 0 0 0 
0 10 0 0 0 
0 10 0 0 0 
0 10 0 0 0 
0 10 0 0 0 
0 10 0 0 0 
0 10 0 0 0 
0 10 0 0 0 
0 10 0 0 0 
0 10 0 0 0 
0 10 0 0 0 
0 10 0 0 0 
0 10 0 0 0 
0 10 0 0 0 
0 10 0 0 0 
0 10 0 0 0 
0 10 0 0 0 
0 10 0 0 0 
0 10 0 0 0 
0 10 0 0 0 
0 10 0 0 0 
0 10 0 0 0 
0 10 0 0 0 
0 10 0 0 0 
0 10 0 0 0 
0 10 0 0 0 
0 10 0 0 0 
0 10 0 0 0 
0 10 0 0 0 
0 10 0 0 0 
0 10 0 0 0 
0 10 0 0 0 
0 10 0 0 0 
0 10 0 0 0 
0 10 0 0 0 
0 10 0 0 0 
0 10 0 0 0 
0 10 0 0 0 
0 10 0 0 0 
0 10 0 0 0 
0 10 0 0 0 
0 10 0 0 0 
0 10 0 0 0 
0 10 0 0 0 
0 10 0 0 0 
0 10 0 0 0 
0 10 0 0 0 
0 10 0 0 0 
0 10 0 0 0 
0 10 0 0 0 
0 10 0 0 0 
0 10 0 0 0 
0 10 0 0 0 
0 10 0 0 0 
0 10 0 0 0 
0 10 0 0 0 
0 10 0 0 0 
0 10 0 0 0 
0 10 0 0 0 
0 10 0 0 0 
0 10 0 0 0 
0 10 0 0 0 
0 10 0 0 0 
0 10 0 0 0 
0 10 0 0 0 
0 10 0 0 0 
0 10 0 0 0 
0 10 0 0 0 
0 10 0 0 0 
0 10 0 0 0 
0 10 0 0 0 
0 10 0 0 0 
0 10 0 0 0 
0 10 0 0 0 
0 10 0 0 0 
0 10 0 0 0 
0 10 0 0 0 
0 10 0 0 0 
0 10 0 0 0 
0 10 0 0 0 
0 10 0 0 0 
0 10 0 0 0 
0 10 0 0 0 
0 10 0 0 0 
0 10 0 0 0 
0 10 0 0 0 
0 10 0 0 0 
0 10 0 0 0 
0 10 0 0 0 
0 10 0 0 0 
0 10 0 0 0 
0 10 0 0 0 
0 10 0 0 0 
0 10 0 0 0 
0 10 0 0 0 
0 10 0 0 0 
0 10 0 0 0 
0 10 0 0 0 
0 10 0 0 0 
0 10 0 0 0 
0 10 0 0 0 
0 10 0 0 0 
0 10 0 0 0 
0 10 0 0 0 
0 10 0 0 0 
0 10 0 0 0 
0 10 0 0 0 
0 10 0 0 0 
0 10 0 0 0 
0 10 0 0 0 
0 10 0 0 0 
0 10 0 0 0 
0 10 0 0 0 
0 10 0 0 0 
0 10 0 0 0 
0 10 0 0 0 
0 10 0 0 0 
0 10 0 0 0 
0 10 0 0 0 
0 10 0 0 0 
0 10 0 0 0 
0 10 0 0 0 
0 10 0 0 0 
0 10 0 0 0 
0 10 0 0 0 
0 10 0 0 0 
0 10 0 0 0 
0 10 0 0 0 
0 10 0 0 0 
0 10 0 0 0 
0 10 0 0 0 
0 10 0 0 0 
0 10 0 0 0 
0 10 0 0 0 
0 10 0 0 0 
0 10 0 0 0 
0 10 0 0 0 
0 10 0 0 0 
0 10 0 0 0 
0 10 0 0 0 
0 10 0 0 0 
0 10 0 0 0 
0 10 0 0 0 
0 10 0 0 0 
0 10 0 0 0 
0 10 0 0 0 
0 10 0 0 0 
0 10 0 0 0 
0 10 0 0 0 
0 10 0 0 0 
0 10 0 0 0 
0 10 0 0 0 
0 10 0 0 0 
0 10 0 0 0 
0 10 0 0 0 
0 10 0 0 0 
0 10 0 0 0 
0 10 0 0 0 
0 10 0 0 0 
0 10 0 0 0 
0 10 0 0 0 
0 10 0 0 0 
0 10 0 0 0 
0 10 0 0 0 
0 10 0 0 0 
0 10 0 0 0 
0 10 0 0 0 
0 10 0 0 0 
0 10 0 0 0 
0 10 0 0 0 
0 10 0 0 0 
0 10 0 0 0 
0 10 0 0 0 
0 10 0 0 0 
0 10 0 0 0 
0 10 0 0 0 
0 10 0 0 0 
0 10 0 0 0 
0 10 0 0 0 
0 10 0 0 0 
0 10 0 0 0 
0 10 0 0 0 
0 10 0 0 0 
0 10 0 0 0 
0 10 0 0 0 
0 10 0 0 0 
0 10 0 0 0 
0 10 0 0 0 
0 10 0 0 0 
0 10 0 0 0 
0 10 0 0 0 
0 10 0 0 0 
0 10 0 0 0 
0 10 0 0 0 
0 10 0 0 0 
0 10 0 0 0 
0 10 0 0 0 
0 10 0 0 0 
0 10 0 0 0 
0 10 0 0 0 
0 10 0 0 0 
0 10 0 0 0 
0 10 0 0 0 
0 10 0 0 0 
0 10 0 0 0 
0 10 0 0 0 
0 10 0 0 0 
0 10 0 0 0 
0 10 0 0 0 
0 10 0 0 0 
0 10 0 0 0 
0 10 0 0 0 
0 10 0 0 0 
0 10 0 0 0 
0 10 0 0 0 
0 10 0 0 0 
0 10 0 0 0 
0 10 0 0 0 
0 10 0 0 0 
0 10 0 0 0 
0 10 0 0 0 
0 10 0 0 0 
0 10 0 0 0 
0 10 0 0 0 
0 10 0 0 0 
0 10 0 0 0 
0 10 0 0 0 
0 10 0 0 0 
0 10 0 0 0 
0 10 0 0 0 
0 10 0 0 0 
0 10 0 0 0 
0 10 0 0 0 
0 10 0 0 0 
0 10 0 0 0 
0 10 0 0 0 
0 10 0 0 0 
0 10 0 0 0 
0 10 0 0 0 
0 10 0 0 0 
0 10 0 0 0 
0 10 0 0 0 
0 10 0 0 0 
0 10 0 0 0 
0 10 0 0 0 
0 10 0 0 0 
0 10 0 0 0 
0 10 0 0 0 
0 10 0 0 0 
0 10 0 0 0 
0 10 0 0 0 
0 10 0 0 0 
0 10 0 0 0 
0 10 0 0 0 
0 10 0 0 0 
0 10 0 0 0 
0 10 0 0 0 
0 10 0 0 0 
0 10 0 0 0 
0 10 0 0 0 
0 10 0 0 0 
0 10 0 0 0 
0 10 0 0 0 
0 10 0 0 0 
0 10 0 0 0 
0 10 0 0 0 
0 10 0 0 0 
0 10 0 0 0 
0 10 0 0 0 
0 10 0 0 0 
0 10 0 0 0 
0 10 0 0 0 
0 10 0 0 0 
0 10 0 0 0 
0 10 0 0 0 
0 10 0 0 0 
0 10 0 0 0 
0 10 0 0 0 
0 10 0 0 0 
0 10 0 0 0 
0 10 0 0 0 
0 10 0 0 0 
0 10 0 0 0 
0 10 0 0 0 
0 10 0 0 0 
0 10 0 0 0 
0 10 0 0 0 
0 10 0 0 0 
0 10 0 0 0 
0 10 0 0 0 
0 10 0 0 0 
0 10 0 0 0 
0 10 0 0 0 
0 10 0 0 0 
0 10 0 0 0 
0 10 0 0 0 
0 10 0 0 0 
0 10 0 0 0 
0 10 0 0 0 
0 10 0 0 0 
0 10 0 0 0 
0 10 0 0 0 
0 10 0 0 0 
0 10 0 0 0 
0 10 0 0 0 
0 10 0 0 0 
0 10 0 0 0 
0 10 0 0 0 
0 10 0 0 0 
0 10 0 0 0 
0 10 0 0 0 
0 10 0 0 0 
0 10 0 0 0 
0 10 0 0 0 
0 10 0 0 0 
0 10 0 0 0 
0 10 0 0 0 
0 10 0 0 0 
0 10 0 0 0 
0 10 0 0 0 
0 10 0 0 0 
0 10 0 0 0 
0 10 0 0 0 
0 10 0 0 0 
0 10 0 0 0 
0 10 0 0 0 
0 10 0 0 0 
0 10 0 0 0 
0 10 0 0 0 
0 10 0 0 0 
0 10 0 0 0 
0 10 0 0 0 
0 10 0 0 0 
0 10 0 0 0 
0 10 0 0 0 
0 10 0 0 0 
0 10 0 0 0 
0 10 0 0 0 
0 10 0 0 0 
0 10 0 0 0 
0 10 0 0 0 
0 10 0 0 0 
0 10 0 0 0 
0 10 0 0 0 
0 10 0 0 0 
0 10 0 0 0 
0 10 0 0 0 
0 10 0 0 0 
0 10 0 0 0 
0 10 0 0 0 
0 10 0 0 0 
0 10 0 0 0 
0 10 0 0 0 
0 10 0 0 0 
0 10 0 0 0 
0 10 0 0 0 
0 10 0 0 0 
0 10 0 0 0 
0 10 0 0 0 
0 10 0 0 0 
0 10 0 0 0 
0 10 0 0 0 
0 10 0 0 0 
0 10 0 0 0 
0 10 0 0 0 
0 10 0 0 0 
0 10 0 0 0 
0 10 0 0 0 
0 10 0 0 0 
0 10 0 0 0 
0 10 0 0 0 
0 10 0 0 0 
0 10 0 0 0 
0 10 0 0 0 
0 10 0 0 0 
0 10 0 0 0 
0 10 0 0 0 
0 10 0 0 0 
0 10 0 0 0 
0 10 0 0 0 
0 10 0 0 0 
0 10 0 0 0 
0 10 0 0 0 
0 10 0 0 0 
0 10 0 0 0 
0 10 0 0 0 
0 10 0 0 0 
0 10 0 0 0 
0 10 0 0 0 
0 10 0 0 0 
0 10 0 0 0 
0 10 0 0 0 
0 10 0 0 0 
0 10 0 0 0 
0 10 0 0 0 
0 10 0 0 0 
0 10 0 0 0 
0 10 0 0 0 
0 10 0 0 0 
0 10 0 0 0 
0 10 0 0 0 
0 10 0 0 0 
0 10 0 0 0 
0 10 0 0 0 
0 10 0 0 0 
0 10 0 0 0 
0 10 0 0 0 
0 10 0 0 0 
0 10 0 0 0 
0 10 0 0 0 
0 10 0 0 0 
0 10 0 0 0 
0 10 0 0 0 
0 10 0 0 0 
0 10 0 0 0 
0 10 0 0 0 
0 10 0 0 0 
0 10 0 0 0 
0 10 0 0 0 
0 10 0 0 0 
0 10 0 0 0 
0 10 0 0 0 
0 10 0 0 0 
0 10 0 0 0 
0 10 0 0 0 
0 10 0 0 0 
0 10 0 0 0 
0 10 0 0 0 
0 10 0 0 0 
0 10 0 0 0 
0 10 0 0 0 
0 10 0 0 0 
0 10 0 0 0 
0 10 0 0 0 
0 10 0 0 0 
0 10 0 0 0 
0 10 0 0 0 
0 10 0 0 0 
0 10 0 0 0 
0 10 0 0 0 
0 10 0 0 0 
0 10 0 0 0 
0 10 0 0 0 
0 10 0 0 0 
0 10 0 0 0 
0 10 0 0 0 
0 10 0 0 0 
0 10 0 0 0 
0 10 0 0 0 
0 10 0 0 0 
0 10 0 0 0 
0 10 0 0 0 
0 10 0 0 0 
0 10 0 0 0 
0 10 0 0 0 
0 10 0 0 0 
0 10 0 0 0 
0 10 0 0 0 
0 10 0 0 0 
0 10 0 0 0 
0 10 0 0 0 
0 10 0 0 0 
0 10 0 0 0 
0 10 0 0 0 
0 10 0 0 0 
0 10 0 0 0 
0 10 0 0 0 
0 10 0 0 0 
0 10 0 0 0 
0 10 0 0 0 
0 10 0 0 0 
0 10 0 0 0 
0 10 0 0 0 
0 10 0 0 0 
0 10 0 0 0 
0 10 0 0 0 
0 10 0 0 0 
0 10 0 0 0 
0 10 0 0 0 
0 10 0 0 0 
0 10 0 0 0 
0 10 0 0 0 
0 10 0 0 0 
0 10 0 0 0 
0 10 0 0 0 
0 10 0 0 0 
0 10 0 0 0 
0 10 0 0 0 
0 10 0 0 0 
0 10 0 0 0 
0 10 0 0 0 
0 10 0 0 0 
0 10 0 0 0 
0 10 0 0 0 
0 10 0 0 0 
0 10 0 0 0 
0 10 0 0 0 
0 10 0 0 0 
0 10 0 0 0 
0 10 0 0 0 
0 10 0 0 0 
0 10 0 0 0 
0 10 0 0 0 
0 10 0 0 0 
0 10 0 0 0 
0 10 0 0 0 
0 10 0 0 0 
0 10 0 0 0 
0 10 0 0 0 
0 10 0 0 0 
0 10 0 0 0 
0 10 0 0 0 
0 10 0 0 0 
0 10 0 0 0 
0 10 0 0 0 
0 10 0 0 0 
0 10 0 0 0 
0 10 0 0 0 
0 10 0 0 0 
0 10 0 0 0 
0 10 0 0 0 
0 10 0 0 0 
0 10 0 0 0 
0 10 0 0 0 
0 10 0 0 0 
0 10 0 0 0 
0 10 0 0 0 
0 10 0 0 0 
0 10 0 0 0 
0 10 0 0 0 
0 10 0 0 0 
0 10 0 0 0 
0 10 0 0 0 
0 10 0 0 0 
0 10 0 0 0 
0 10 0 0 0 
0 10 0 0 0 
0 10 0 0 0 
0 10 0 0 0 
0 10 0 0 0 
0 10 0 0 0 
0 10 0 0 0 
0 10 0 0 0 
0 10 0 0 0 
0 10 0 0 0 
0 10 0 0 0 
0 10 0 0 0 
0 10 0 0 0 
0 10 0 0 0 
0 10 0 0 0 
0 10 0 0 0 
0 10 0 0 0 
0 10 0 0 0 
0 10 0 0 0 
0 10 0 0 0 
0 10 0 0 0 
0 10 0 0 0 
0 10 0 0 0 
0 10 0 0 0 
0 10 0 0 0 
0 10 0 0 0 
0 10 0 0 0 
0 10 0 0 0 
0 10 0 0 0 
0 10 0 0 0 
0 10 0 0 0 
0 10 0 0 0 
0 10 0 0 0 
0 10 0 0 0 
0 10 0 0 0 
0 10 0 0 0 
0 10 0 0 0 
0 10 0 0 0 
0 10 0 0 0 
0 10 0 0 0 
0 10 0 0 0 
0 10 0 0 0 
0 10 0 0 0 
0 10 0 0 0 
0 10 0 0 0 
0 10 0 0 0 
0 10 0 0 0 
0 10 0 0 0 
0 10 0 0 0 
0 10 0 0 0 
0 10 0 0 0 
0 10 0 0 0 
0 10 0 0 0 
0 10 0 0 0 
0 10 0 0 0 
0 10 0 0 0 
0 10 0 0 0 
0 10 0 0 0 
0 10 0 0 0 
0 10 0 0 0 
0 10 0 0 0 
0 10 0 0 0 
0 10 0 0 0 
0 10 0 0 0 
0 10 0 0 0 
0 10 0 0 0 
0 10 0 0 0 
0 10 0 0 0 
0 10 0 0 0 
0 10 0 0 0 
0 10 0 0 0 
0 10 0 0 0 
0 10 0 0 0 
0 10 0 0 0 
0 10 0 0 0 
0 10 0 0 0 
0 10 0 0 0 
0 10 0 0 0 
0 10 0 0 0 
0 10 0 0 0 
0 10 0 0 0 
0 10 0 0 0 
0 10 0 0 0 
0 10 0 0 0 
0 10 0 0 0 
0 10 0 0 0 
0 10 0 0 0 
0 10 0 0 0 
0 10 0 0 0 
0 10 0 0 0 
0 10 0 0 0 
0 10 0 0 0 
0 10 0 0 0 
0 10 0 0 0 
0 10 0 0 0 
0 10 0 0 0 
0 10 0 0 0 
0 10 0 0 0 
0 10 0 0 0 
0 10 0 0 0 
0 10 0 0 0 
0 10 0 0 0 
0 10 0 0 0 
0 10 0 0 0 
0 10 0 0 0 
0 10 0 0 0 
0 10 0 0 0 
0 10 0 0 0 
0 10 0 0 0 
0 10 0 0 0 
0 10 0 0 0 
0 10 0 0 0 
0 10 0 0 0 
0 10 0 0 0 
0 10 10 0 0 
0 10 10 0 0 
0 10 10 0 0 
0 10 10 0 0 
0 10 10 0 0 
0 10 10 0 0 
0 10 10 0 0 
0 10 10 0 0 
0 10 10 0 0 
0 10 10 0 0 
0 10 10 0 0 
0 10 10 0 0 
0 10 10 0 0 
0 10 10 0 0 
0 10 10 0 0 
0 10 10 0 0 
0 10 10 0 0 
0 10 10 0 0 
0 10 10 0 0 
0 10 10 0 0 
0 10 10 0 0 
0 10 10 0 0 
0 10 10 0 0 
0 10 10 0 0 
0 10 10 0 0 
0 10 10 0 0 
0 10 10 0 0 
0 10 10 0 0 
0 10 10 0 0 
0 10 10 0 0 
0 10 10 0 0 
0 10 10 0 0 
0 10 10 0 0 
0 10 10 0 0 
0 10 10 0 0 
0 10 10 0 0 
0 10 10 0 0 
0 10 10 0 0 
0 10 10 0 0 
0 10 10 0 0 
0 10 10 0 0 
0 10 10 0 0 
0 10 10 0 0 
0 10 10 0 0 
0 10 10 0 0 
0 10 10 0 0 
0 10 10 0 0 
0 10 10 0 0 
0 10 10 0 0 
0 10 10 0 0 
0 10 10 0 0 
0 10 10 0 0 
0 10 10 0 0 
0 10 10 0 0 
0 10 10 0 0 
0 10 10 0 0 
0 10 10 0 0 
0 10 10 0 0 
0 10 10 0 0 
0 10 10 0 0 
0 10 10 0 0 
0 10 10 0 0 
0 10 10 0 0 
0 10 10 0 0 
0 10 10 0 0 
0 10 10 10 0 
0 10 10 10 0 
0 10 10 10 0 
0 10 10 10 0 
0 10 10 10 0 
0 10 10 10 0 
0 10 10 10 0 
0 10 10 10 0 
0 10 10 10 0 
0 10 10 10 0 
0 10 10 10 0 
10 10 10 10 10 
-10 10 10 10 10 
-10 -0 0 0 0 
-10 -0 0 0 0 
-10 -0 0 0 0 
-10 -0 0 0 0 
-10 -0 0 0 0 
-10 -0 0 0 0 
-10 -0 0 0 0 
-10 -0 0 0 0 
-10 -0 0 0 0 
-10 -0 0 0 0 
-10 -0 0 0 0 
-10 -0 0 0 0 
-10 -0 0 0 0 
-10 -0 0 0 0 
-10 -0 0 0 0 
-10 -0 0 0 0 
-10 -0 0 0 0 
-10 -0 0 0 0 
-10 -0 0 0 0 
-10 -0 0 0 0 
-10 -0 0 0 0 
-10 -0 0 0 0 
-10 -0 0 0 0 
-10 -0 0 0 0 
-10 -0 0 0 0 
-10 -0 0 0 0 
-10 -0 0 0 0 
-10 -0 0 0 0 
-10 -0 0 0 0 
-10 -0 0 0 0 
-10 -0 0 0 0 
-10 -0 0 0 0 
-10 -0 0 0 0 
-10 -0 0 0 0 
-10 -0 0 0 0 
-10 -0 0 0 0 
-10 -0 0 0 0 
-10 -0 0 0 0 
-10 -0 0 0 0 
-10 -0 0 0 0 
-10 -0 0 0 0 
-10 -0 0 0 0 
-10 -0 0 0 0 
-10 -0 0 0 0 
-10 -0 0 0 0 
-10 -0 0 0 0 
-10 -0 0 0 0 
-10 -0 0 0 0 
-10 -0 0 0 0 
-10 -0 0 0 0 
-10 -0 0 0 0 
-10 -0 0 0 0 
-10 -0 0 0 0 
-10 -0 0 0 0 
-10 -0 0 0 0 
-10 -0 0 0 0 
-10 -0 0 0 0 
-10 -0 0 0 0 
-10 -0 0 0 0 
-10 -0 0 0 0 
-10 -0 0 0 0 
-10 -0 0 0 0 
-10 -0 0 0 0 
-10 -0 0 0 0 
-10 -0 0 0 0 
-10 -0 0 0 0 
-10 -0 0 0 0 
-10 -0 0 0 0 
-10 -0 0 0 0 
-10 -0 0 0 0 
-10 -0 0 0 0 
-10 -0 0 0 0 
-10 -0 0 0 0 
-10 -0 0 0 0 
-10 -0 0 0 0 
-10 -0 0 0 0 
-10 -0 0 0 0 
-10 -0 0 0 0 
-10 -0 0 0 0 
-10 -0 0 0 0 
-10 -0 0 0 0 
-10 -0 0 0 0 
-10 -0 0 0 0 
-10 -0 0 0 0 
-10 -0 0 0 0 
-10 -0 0 0 0 
-10 -0 0 0 0 
-10 -0 0 0 0 
-10 -0 0 0 0 
-10 -0 0 0 0 
-10 -0 0 0 0 
-10 -0 0 0 0 
-10 -0 0 0 0 
-10 -0 0 0 0 
-10 -0 0 0 0 
-10 -0 0 0 0 
-10 -0 0 0 0 
-10 -0 0 0 0 
-10 -0 0 0 0 
-10 -0 0 0 0 
-10 -0 0 0 0 
-10 -0 0 0 0 
-10 -0 0 0 0 
-10 -0 0 0 0 
-10 -0 0 0 0 
-10 -0 0 0 0 
-10 -0 0 0 0 
-10 -0 0 0 0 
-10 -0 0 0 0 
-10 -0 0 0 0 
-10 -0 0 0 0 
-10 -0 0 0 0 
-10 -0 0 0 0 
-10 -0 0 0 0 
-10 -0 0 0 0 
-10 -0 0 0 0 
-10 -0 0 0 0 
-10 -0 0 0 0 
-10 -0 0 0 0 
-10 -0 0 0 0 
-10 -0 0 0 0 
-10 -0 0 0 0 
-10 -0 0 0 0 
-10 -0 0 0 0 
-10 -0 0 0 0 
-10 -0 0 0 0 
-10 -0 0 0 0 
-10 -0 0 0 0 
-10 -0 0 0 0 
-10 -0 0 0 0 
-10 -0 0 0 0 
-10 -0 0 0 0 
-10 -0 0 0 0 
-10 -0 0 0 0 
-10 -0 0 0 0 
-10 -0 0 0 0 
-10 -0 0 0 0 
-10 -0 0 0 0 
-10 -0 0 0 0 
-10 -0 0 0 0 
-10 -0 0 0 0 
-10 -0 0 0 0 
-10 -0 0 0 0 
-10 -0 0 0 0 
-10 -0 0 0 0 
-10 -0 0 0 0 
-10 -0 0 0 0 
-10 -0 0 0 0 
-10 -0 0 0 0 
-10 -0 0 0 0 
-10 -0 0 0 0 
-10 -0 0 0 0 
-10 -0 0 0 0 
-10 -0 0 0 0 
-10 -0 0 0 0 
-10 -0 0 0 0 
-10 -0 0 0 0 
-10 -0 0 0 0 
-10 -0 0 0 0 
-10 -0 0 0 0 
-10 -0 0 0 0 
-10 -0 0 0 0 
-10 -0 0 0 0 
-10 -0 0 0 0 
-10 -0 0 0 0 
-10 -0 0 0 0 
-10 -0 0 0 0 
-10 -0 0 0 0 
-10 -0 0 0 0 
-10 -0 0 0 0 
-10 -0 0 0 0 
-10 -0 0 0 0 
-10 -0 0 0 0 
-10 -0 0 0 0 
-10 -0 0 0 0 
-10 -0 0 0 0 
-10 -0 0 0 0 
-10 -0 0 0 0 
-10 -0 0 0 0 
-10 -0 0 0 0 
-10 -0 0 0 0 
-10 -0 0 0 0 
-10 -0 0 0 0 
-10 -0 0 0 0 
-10 -0 0 0 0 
-10 -0 0 0 0 
-10 -0 0 0 0 
-10 -0 0 0 0 
-10 -0 0 0 0 
-10 -0 0 0 0 
-10 -0 0 0 0 
-10 -0 0 0 0 
-10 -0 0 0 0 
-10 -0 0 0 0 
-10 -0 0 0 0 
-10 -0 0 0 0 
-10 -0 0 0 0 
-10 -0 0 0 0 
-10 -0 0 0 0 
-10 -0 0 0 0 
-10 -0 0 0 0 
-10 -0 0 0 0 
-10 -0 0 0 0 
-10 -0 0 0 0 
-10 -0 0 0 0 
-10 -0 0 0 0 
-10 -0 0 0 0 
-10 -0 0 0 0 
-10 -0 0 0 0 
-10 -0 0 0 0 
-10 -0 0 0 0 
-10 -0 0 0 0 
-10 -0 0 0 0 
-10 -0 0 0 0 
-10 -0 0 0 0 
-10 -0 0 0 0 
-10 -0 0 0 0 
-10 -0 0 0 0 
-10 -0 0 0 0 
-10 -0 0 0 0 
-10 -0 0 0 0 
-10 -0 0 0 0 
-10 -0 0 0 0 
-10 -0 0 0 0 
-10 -0 0 0 0 
-10 -0 0 0 0 
-10 -0 0 0 0 
-10 -0 0 0 0 
-10 -0 0 0 0 
-10 -0 0 0 0 
-10 -0 0 0 0 
-10 -0 0 0 0 
-10 -0 0 0 0 
-10 -0 0 0 0 
-10 -0 0 0 0 
-10 -0 0 0 0 
-10 -0 0 0 0 
-10 -0 0 0 0 
-10 -0 0 0 0 
-10 -0 0 0 0 
-10 -0 0 0 0 
-10 -0 0 0 0 
-10 -0 0 0 0 
-10 -0 0 0 0 
-10 -0 0 0 0 
-10 -0 0 0 0 
-10 -0 0 0 0 
-10 -0 0 0 0 
-10 -0 0 0 0 
-10 -0 0 0 0 
-10 -0 0 0 0 
-10 -0 0 0 0 
-10 -0 0 0 0 
-10 -0 0 0 0 
-10 -0 0 0 0 
-10 -0 0 0 0 
-10 -0 0 0 0 
-10 -0 0 0 0 
-10 -0 0 0 0 
-10 -0 0 0 0 
-10 -0 0 0 0 
-10 -0 0 0 0 
-10 -0 0 0 0 
-10 -0 0 0 0 
-10 -0 0 0 0 
-10 -0 0 0 0 
-10 -0 0 0 0 
-10 -0 0 0 0 
-10 -0 0 0 0 
-10 -0 0 0 0 
-10 -0 0 0 0 
-10 -0 0 0 0 
-10 -0 0 0 0 
-10 -0 0 0 0 
-10 -0 0 0 0 
-10 -0 0 0 0 
-10 -0 0 0 0 
-10 -0 0 0 0 
-10 -0 0 0 0 
-10 -0 0 0 0 
-10 -0 0 0 0 
-10 -0 0 0 0 
-10 -0 0 0 0 
-10 -0 0 0 0 
-10 -0 0 0 0 
-10 -0 0 0 0 
-10 -0 0 0 0 
-10 -0 0 0 0 
-10 -0 0 0 0 
-10 -0 0 0 0 
-10 -0 0 0 0 
-10 -0 0 0 0 
-10 -0 0 0 0 
-10 -0 0 0 0 
-10 -0 0 0 0 
-10 -0 0 0 0 
-10 -0 0 0 0 
-10 -0 0 0 0 
-10 -0 0 0 0 
-10 -0 0 0 0 
-10 -0 0 0 0 
-10 -0 0 0 0 
-10 -0 0 0 0 
-10 -0 0 0 0 
-10 -0 0 0 0 
-10 -0 0 0 0 
-10 -0 0 0 0 
-10 -0 0 0 0 
-10 -0 0 0 0 
-10 -0 0 0 0 
-10 -0 0 0 0 
-10 -0 0 0 0 
-10 -0 0 0 0 
-10 -0 0 0 0 
-10 -0 0 0 0 
-10 -0 0 0 0 
-10 -0 0 0 0 
-10 -0 0 0 0 
-10 -0 0 0 0 
-10 -0 0 0 0 
-10 -0 0 0 0 
-10 -0 0 0 0 
-10 -0 0 0 0 
-10 -0 0 0 0 
-10 -0 0 0 0 
-10 -0 0 0 0 
-10 -0 0 0 0 
-10 -0 0 0 0 
-10 -0 0 0 0 
-10 -0 0 0 0 
-10 -0 0 0 0 
-10 -0 0 0 0 
-10 -0 0 0 0 
-10 -0 0 0 0 
-10 -0 0 0 0 
-10 -0 0 0 0 
-10 -0 0 0 0 
-10 -0 0 0 0 
-10 -0 0 0 0 
-10 -0 0 0 0 
-10 -0 0 0 0 
-10 -0 0 0 0 
-10 -0 0 0 0 
-10 -0 0 0 0 
-10 -0 0 0 0 
-10 -0 0 0 0 
-10 -0 0 0 0 
-10 -0 0 0 0 
-10 -0 0 0 0 
-10 -0 0 0 0 
-10 -0 0 0 0 
-10 -0 0 0 0 
-10 -0 0 0 0 
-10 -0 0 0 0 
-10 -0 0 0 0 
-10 -0 0 0 0 
-10 -0 0 0 0 
-10 -0 0 0 0 
-10 -0 0 0 0 
-10 -0 0 0 0 
-10 -0 0 0 0 
-10 -0 0 0 0 
-10 -0 0 0 0 
-10 -0 0 0 0 
-10 -0 0 0 0 
-10 -0 0 0 0 
-10 -0 0 0 0 
-10 -0 0 0 0 
-10 -0 0 0 0 
-10 -0 0 0 0 
-10 -0 0 0 0 
-10 -0 0 0 0 
-10 -0 0 0 0 
-10 -0 0 0 0 
-10 -0 0 0 0 
-10 -0 0 0 0 
-10 -0 0 0 0 
-10 -0 0 0 0 
-10 -0 0 0 0 
-10 -0 0 0 0 
-10 -0 0 0 0 
-10 -0 0 0 0 
-10 -0 0 0 0 
-10 -0 0 0 0 
-10 -0 0 0 0 
-10 -0 0 0 0 
-10 -0 0 0 0 
-10 -0 0 0 0 
-10 -0 0 0 0 
-10 -0 0 0 0 
-10 -0 0 0 0 
-10 -0 0 0 0 
-10 -0 0 0 0 
-10 -0 0 0 0 
-10 -0 0 0 0 
-10 -0 0 0 0 
-10 -0 0 0 0 
-10 -0 0 0 0 
-10 -0 0 0 0 
-10 -0 0 0 0 
-10 -0 0 0 0 
-10 -0 0 0 0 
-10 -0 0 0 0 
-10 -0 0 0 0 
-10 -0 0 0 0 
-10 -0 0 0 0 
-10 -0 0 0 0 
-10 -0 0 0 0 
-10 -0 0 0 0 
-10 -0 0 0 0 
-10 -0 0 0 0 
-10 -0 0 0 0 
-10 -0 0 0 0 
-10 -0 0 0 0 
-10 -0 0 0 0 
-10 -0 0 0 0 
-10 -0 0 0 0 
-10 -0 0 0 0 
-10 -0 0 0 0 
-10 -0 0 0 0 
-10 -0 0 0 0 
-10 -0 0 0 0 
-10 -0 0 0 0 
-10 -0 0 0 0 
-10 -0 0 0 0 
-10 -0 0 0 0 
-10 -0 0 0 0 
-10 -0 0 0 0 
-10 -0 0 0 0 
-10 -0 0 0 0 
-10 -0 0 0 0 
-10 -0 0 0 0 
-10 -0 0 0 0 
-10 -0 0 0 0 
-10 -0 0 0 0 
-10 -0 0 0 0 
-10 -0 0 0 0 
-10 -0 0 0 0 
-10 -0 0 0 0 
-10 -0 0 0 0 
-10 -0 0 0 0 
-10 -0 0 0 0 
-10 -0 0 0 0 
-10 -0 0 0 0 
-10 -0 0 0 0 
-10 -0 0 0 0 
-10 -0 0 0 0 
-10 -0 0 0 0 
-10 -0 0 0 0 
-10 -0 0 0 0 
-10 -0 0 0 0 
-10 -0 0 0 0 
-10 -0 0 0 0 
-10 -0 0 0 0 
-10 -0 0 0 0 
-10 -0 0 0 0 
-10 -0 0 0 0 
-10 -0 0 0 0 
-10 -0 0 0 0 
-10 -0 0 0 0 
-10 -0 0 0 0 
-10 -0 0 0 0 
-10 -0 0 0 0 
-10 -0 0 0 0 
-10 -0 0 0 0 
-10 -0 0 0 0 
-10 -0 0 0 0 
-10 -0 0 0 0 
-10 -0 0 0 0 
-10 -0 0 0 0 
-10 -0 0 0 0 
-10 -0 0 0 0 
-10 -0 0 0 0 
-10 -0 0 0 0 
-10 -0 0 0 0 
-10 -0 0 0 0 
-10 -0 0 0 0 
-10 -0 0 0 0 
-10 -0 0 0 0 
-10 -0 0 0 0 
-10 -0 0 0 0 
-10 -0 0 0 0 
-10 -0 0 0 0 
-10 -0 0 0 0 
-10 -0 0 0 0 
-10 -0 0 0 0 
-10 -0 0 0 0 
-10 -0 0 0 0 
-10 -0 0 0 0 
-10 -0 0 0 0 
-10 -0 0 0 0 
-10 -0 0 0 0 
-10 -0 0 0 0 
-10 -0 0 0 0 
-10 -0 0 0 0 
-10 -0 0 0 0 
-10 -0 0 0 0 
-10 -0 0 0 0 
-10 -0 0 0 0 
-10 -0 0 0 0 
-10 -0 0 0 0 
-10 -0 0 0 0 
-10 -0 0 0 0 
-10 -0 0 0 0 
-10 -0 0 0 0 
-10 -0 0 0 0 
-10 -0 0 0 0 
-10 -0 0 0 0 
-10 -0 0 0 0 
-10 -0 0 0 0 
-10 -0 0 0 0 
-10 -0 0 0 0 
-10 -0 0 0 0 
-10 -0 0 0 0 
-10 -0 0 0 0 
-10 -0 0 0 0 
-10 -0 0 0 0 
-10 -0 0 0 0 
-10 -0 0 0 0 
-10 -0 0 0 0 
-10 -0 0 0 0 
-10 -0 0 0 0 
-10 -0 0 0 0 
-10 -0 0 0 0 
-10 -0 0 0 0 
-10 -0 0 0 0 
-10 -0 0 0 0 
-10 -0 0 0 0 
-10 -0 0 0 0 
-10 -0 0 0 0 
-10 -0 0 0 0 
-10 -0 0 0 0 
-10 -0 0 0 0 
-10 -0 0 0 0 
-10 -0 0 0 0 
-10 -0 0 0 0 
-10 -0 0 0 0 
-10 -0 0 0 0 
-10 -0 0 0 0 
-10 -0 0 0 0 
-10 -0 0 0 0 
-10 -0 0 0 0 
-10 -0 0 0 0 
-10 -0 0 0 0 
-10 -0 0 0 0 
-10 -0 0 0 0 
-10 -0 0 0 0 
-10 -0 0 0 0 
-10 -0 0 0 0 
-10 -0 0 0 0 
-10 -0 0 0 0 
-10 -0 0 0 0 
-10 -0 0 0 0 
-10 -0 0 0 0 
-10 -0 0 0 0 
-10 -0 0 0 0 
-10 -0 0 0 0 
-10 -0 0 0 0 
-10 -0 0 0 0 
-10 -0 0 0 0 
-10 -0 0 0 0 
-10 -0 0 0 0 
-10 -0 0 0 0 
-10 -0 0 0 0 
-10 -0 0 0 0 
-10 -0 0 0 0 
-10 -0 0 0 0 
-10 -0 0 0 0 
-10 -0 0 0 0 
-10 -0 0 0 0 
-10 -0 0 0 0 
-10 -0 0 0 0 
-10 -0 0 0 0 
-10 -0 0 0 0 
-10 -0 0 0 0 
-10 -0 0 0 0 
-10 -0 0 0 0 
-10 -0 0 0 0 
-10 -0 0 0 0 
-10 -0 0 0 0 
-10 -0 0 0 0 
-10 -0 0 0 0 
-10 -0 0 0 0 
-10 -0 0 0 0 
-10 -0 0 0 0 
-10 -0 0 0 0 
-10 -0 0 0 0 
-10 -0 0 0 0 
-10 -0 0 0 0 
-10 -0 0 0 0 
-10 -0 0 0 0 
-10 -0 0 0 0 
-10 -0 0 0 0 
-10 -0 0 0 0 
-10 -0 0 0 0 
-10 -0 0 0 0 
-10 -0 0 0 0 
-10 -0 0 0 0 
-10 -0 0 0 0 
-10 -0 0 0 0 
-10 -0 0 0 0 
-10 -0 0 0 0 
-10 -0 0 0 0 
-10 -0 0 0 0 
-10 -0 0 0 0 
-10 -0 0 0 0 
-10 -0 0 0 0 
-10 -0 0 0 0 
-10 -0 0 0 0 
-10 -0 0 0 0 
-10 -0 0 0 0 
-10 -0 0 0 0 
-10 -0 0 0 0 
-10 -0 0 0 0 
-10 -0 0 0 0 
-10 -0 0 0 0 
-10 -0 0 0 0 
-10 -0 0 0 0 
-10 -0 0 0 0 
-10 -0 0 0 0 
-10 -0 0 0 0 
-10 -0 0 0 0 
-10 -0 0 0 0 
-10 -0 0 0 0 
-10 -0 0 0 0 
-10 -0 0 0 0 
-10 -0 0 0 0 
-10 -0 0 0 0 
-10 -0 0 0 0 
-10 -0 0 0 0 
-10 -0 0 0 0 
-10 -0 0 0 0 
-10 -0 0 0 0 
-10 -0 0 0 0 
-10 -0 0 0 0 
-10 -0 0 0 0 
-10 -0 0 0 0 
-10 -0 0 0 0 
-10 -0 0 0 0 
-10 -0 0 0 0 
-10 -0 0 0 0 
-10 -0 0 0 0 
-10 -0 0 0 0 
-10 -0 0 0 0 
-10 -0 0 0 0 
-10 -0 0 0 0 
-10 -0 0 0 0 
-10 -0 0 0 0 
-10 -0 0 0 0 
-10 -0 0 0 0 
-10 -0 0 0 0 
-10 -0 0 0 0 
-10 -0 0 0 0 
-10 -0 0 0 0 
-10 -0 0 0 0 
-10 -0 0 0 0 
-10 -0 0 0 0 
-10 -0 0 0 0 
-10 -0 0 0 0 
-10 -0 0 0 0 
-10 -0 0 0 0 
-10 -0 0 0 0 
-10 -0 0 0 0 
-10 -0 0 0 0 
-10 -0 0 0 0 
-10 -0 0 0 0 
-10 -0 0 0 0 
-10 -0 0 0 0 
-10 -0 0 0 0 
-10 -0 0 0 0 
-10 -0 0 0 0 
-10 -0 0 0 0 
-10 -0 0 0 0 
-10 -0 0 0 0 
-10 -0 0 0 0 
-10 -0 0 0 0 
-10 -0 0 0 0 
-10 -0 0 0 0 
-10 -0 0 0 0 
-10 -0 0 0 0 
-10 -0 0 0 0 
-10 -0 0 0 0 
-10 -0 0 0 0 
-10 -0 0 0 0 
-10 -0 0 0 0 
-10 -0 0 0 0 
-10 -0 0 0 0 
-10 -0 0 0 0 
-10 -0 0 0 0 
-10 -0 0 0 0 
-10 -0 0 0 0 
-10 -0 0 0 0 
-10 -0 0 0 0 
-10 -0 0 0 0 
-10 -0 0 0 0 
-10 -0 0 0 0 
-10 -0 0 0 0 
-10 -0 0 0 0 
-10 -0 0 0 0 
-10 -0 0 0 0 
-10 -0 0 0 0 
-10 -0 0 0 0 
-10 -0 0 0 0 
-10 -0 0 0 0 
-10 -0 0 0 0 
-10 -0 0 0 0 
-10 -0 0 0 0 
-10 -0 0 0 0 
-10 -0 0 0 0 
-10 -0 0 0 0 
-10 -0 0 0 0 
-10 -0 0 0 0 
-10 -0 0 0 0 
-10 -0 0 0 0 
-10 -0 0 0 0 
-10 -0 0 0 0 
-10 -0 0 0 0 
-10 -0 0 0 0 
-10 -0 0 0 0 
-10 -0 0 0 0 
-10 -0 0 0 0 
-10 -0 0 0 0 
-10 -0 0 0 0 
-10 -0 0 0 0 
-10 -0 0 0 0 
-10 -0 0 0 0 
-10 -0 0 0 0 
-10 -0 0 0 0 
-10 -0 0 0 0 
-10 -0 0 0 0 
-10 -0 0 0 0 
-10 -0 0 0 0 
-10 -0 0 0 0 
-10 -0 0 0 0 
-10 -0 0 0 0 
-10 -0 0 0 0 
-10 -0 0 0 0 
-10 -0 0 0 0 
-10 -0 0 0 0 
-10 -0 0 0 0 
-10 -0 0 0 0 
-10 -0 0 0 0 
-10 -0 0 0 0 
-10 -0 0 0 0 
-10 -0 0 0 0 
-10 -0 0 0 0 
-10 -0 0 0 0 
-10 -0 0 0 0 
-10 -0 0 0 0 
-10 -0 0 0 0 
-10 -0 0 0 0 
-10 -0 0 0 0 
-10 -0 0 0 0 
-10 -0 0 0 0 
-10 -0 0 0 0 
-10 -0 0 0 0 
-10 -0 0 0 0 
-10 -0 0 0 0 
-10 -0 0 0 0 
-10 -0 0 0 0 
-10 -0 0 0 0 
-10 -0 0 0 0 
-10 -0 0 0 0 
-10 -0 0 0 0 
-10 -0 0 0 0 
-10 -0 0 0 0 
-10 -0 0 0 0 
-10 -0 0 0 0 
-10 -0 0 0 0 
-10 -0 0 0 0 
-10 -0 0 0 0 
-10 -0 0 0 0 
-10 -0 0 0 0 
-10 -0 0 0 0 
-10 -0 0 0 0 
-10 -0 0 0 0 
-10 -0 0 0 0 
-10 -0 0 0 0 
-10 -0 0 0 0 
-10 -0 0 0 0 
-10 -0 0 0 0 
-10 -0 0 0 0 
-10 -0 0 0 0 
-10 -0 0 0 0 
-10 -0 0 0 0 
-10 -0 0 0 0 
-10 -0 0 0 0 
-10 -0 0 0 0 
-10 -0 0 0 0 
-10 -0 0 0 0 
-10 -0 0 0 0 
-10 -0 0 0 0 
-10 -0 0 0 0 
-10 -0 0 0 0 
-10 -0 0 0 0 
-10 -0 0 0 0 
-10 -0 0 0 0 
-10 -0 0 0 0 
-10 -0 0 0 0 
-10 -0 0 0 0 
-10 -0 0 0 0 
-10 -0 0 0 0 
-10 -0 0 0 0 
-10 -0 0 0 0 
-10 -0 0 0 0 
-10 -0 0 0 0 
-10 -0 0 0 0 
-10 -0 0 0 0 
-10 -0 0 0 0 
-10 -0 0 0 0 
-10 -0 0 0 0 
-10 -0 0 0 0 
-10 -0 0 0 0 
-10 -0 0 0 0 
-10 -0 0 0 0 
-10 -0 0 0 0 
-10 -0 0 0 0 
-10 -0 0 0 0 
-10 -0 0 0 0 
-10 -0 0 0 0 
-10 -0 0 0 0 
-10 -0 0 0 0 
-10 -0 0 0 0 
-10 -0 0 0 0 
-10 -0 0 0 0 
-10 -0 0 0 0 
-10 -0 0 0 0 
-10 -0 0 0 0 
-10 -0 0 0 0 
-10 -0 0 0 0 
-10 -0 0 0 0 
-10 -0 0 0 0 
-10 -0 0 0 0 
-10 -0 0 0 0 
-10 -0 0 0 0 
-10 -0 0 0 0 
-10 -0 0 0 0 
-10 -0 0 0 0 
-10 -0 0 0 0 
-10 -0 0 0 0 
-10 -0 0 0 0 
-10 -0 0 0 0 
-10 -0 0 0 0 
-10 -0 0 0 0 
-10 -0 0 0 0 
-10 -0 0 0 0 
-10 -0 0 0 0 
-10 -0 0 0 0 
-10 -0 0 0 0 
-10 -0 0 0 0 
-10 -0 0 0 0 
-10 -0 0 0 0 
-10 -0 0 0 0 
-10 -0 0 0 0 
-10 -0 0 0 0 
-10 -0 0 0 0 
-10 -0 0 0 0 
-10 -0 0 0 0 
-10 -0 0 0 0 
-10 -0 0 0 0 
-10 -0 0 0 0 
-10 -0 0 0 0 
-10 -0 0 0 0 
-10 -0 0 0 0 
-10 -0 0 0 0 
-10 -0 0 0 0 
-10 -0 0 0 0 
-10 -0 0 0 0 
-10 -0 0 0 0 
-10 -0 0 0 0 
-10 -0 0 0 0 
-10 -0 0 0 0 
-10 -0 0 0 0 
-10 -0 0 0 0 
-10 -0 0 0 0 
-10 -0 0 0 0 
-10 -0 0 0 0 
-10 -0 0 0 0 
-10 -0 0 0 0 
-10 -0 0 0 0 
-10 -0 0 0 0 
-10 -0 0 0 0 
-10 -0 0 0 0 
-10 -0 0 0 0 
-10 -0 0 0 0 
-10 -0 0 0 0 
-10 -0 0 0 0 
-10 -0 0 0 0 
-10 -0 0 0 0 
-10 -0 0 0 0 
-10 -0 0 0 0 
-10 -0 0 0 0 
-10 -0 0 0 0 
-10 -0 0 0 0 
-10 -0 0 0 0 
-10 -0 0 0 0 
-10 -0 0 0 0 
-10 -0 0 0 0 
-10 -0 0 0 0 
-10 -0 0 0 0 
-10 -0 0 0 0 
-10 -0 0 0 0 
-10 -0 0 0 0 
-10 -0 0 0 0 
-10 -0 0 0 0 
-10 -0 0 0 0 
-10 -0 0 0 0 
-10 -0 0 0 0 
-10 -0 0 0 0 
-10 -0 0 0 0 
-10 -0 0 0 0 
-10 -0 0 0 0 
-10 -0 0 0 0 
-10 -0 0 0 0 
-10 -0 0 0 0 
-10 -0 0 0 0 
-10 -0 0 0 0 
-10 -0 0 0 0 
-10 -0 0 0 0 
-10 -0 0 0 0 
-10 -0 0 0 0 
-10 -0 0 0 0 
-10 -0 0 0 0 
-10 -0 0 0 0 
-10 -0 0 0 0 
-10 -0 0 0 0 
-10 -0 0 0 0 
-10 -0 0 0 0 
-10 -0 0 0 0 
-10 -0 0 0 0 
-10 -0 0 0 0 
-10 -0 0 0 0 
-10 -0 0 0 0 
-10 -0 0 0 0 
-10 -0 0 0 0 
-10 -0 0 0 0 
-10 -0 0 0 0 
-10 -0 0 0 0 
-10 -0 0 0 0 
-10 -0 0 0 0 
-10 -0 0 0 0 
-10 -0 0 0 0 
-10 -0 0 0 0 
-10 -0 0 0 0 
-10 -0 0 0 0 
-10 -0 0 0 0 
-10 -0 0 0 0 
-10 -0 0 0 0 
-10 -0 0 0 0 
-10 -0 0 0 0 
-10 -0 0 0 0 
-10 -0 0 0 0 
-10 -0 0 0 0 
-10 -0 0 0 0 
-10 -0 0 0 0 
-10 -0 0 0 0 
-10 -0 0 0 0 
-10 -0 0 0 0 
-10 -0 0 0 0 
-10 -0 0 0 0 
-10 -0 0 0 0 
-10 -0 0 0 0 
-10 -0 0 0 0 
-10 -0 0 0 0 
-10 -0 0 0 0 
-10 -0 0 0 0 
-10 -0 0 0 0 
-10 -0 0 0 0 
-10 -0 0 0 0 
-10 -0 0 0 0 
-10 -0 0 0 0 
-10 -0 0 0 0 
-10 -0 0 0 0 
-10 -0 0 0 0 
-10 -0 0 0 0 
-10 -0 0 0 0 
-10 -0 0 0 0 
-10 -0 0 0 0 
-10 -0 0 0 0 
-10 -0 0 0 0 
-10 -0 0 0 0 
-10 -0 0 0 0 
-10 -0 0 0 0 
-10 -0 0 0 0 
-10 -0 0 0 0 
-10 -0 0 0 0 
-10 -0 0 0 0 
-10 -0 0 0 0 
-10 -0 0 0 0 
-10 -0 0 0 0 
-10 -0 0 0 0 
-10 -0 0 0 0 
-10 -0 0 0 0 
-10 -0 0 0 0 
-10 -0 0 0 0 
-10 -0 0 0 0 
-10 -0 0 0 0 
-10 -0 0 0 0 
-10 -0 0 0 0 
-10 -0 0 0 0 
-10 -0 0 0 0 
-10 -0 0 0 0 
-10 -0 0 0 0 
-10 -0 0 0 0 
-10 -0 0 0 0 
-10 -0 0 0 0 
-10 -0 0 0 0 
-10 -0 0 0 0 
-10 -0 0 0 0 
-10 -0 0 0 0 
-10 -0 0 0 0 
-10 -0 0 0 0 
-10 -0 0 0 0 
-10 -0 0 0 0 
-10 -0 0 0 0 
-10 -0 0 0 0 
-10 -0 0 0 0 
-10 -0 0 0 0 
-10 -0 0 0 0 
-10 -0 0 0 0 
-10 -0 0 0 0 
-10 -0 0 0 0 
-10 -0 0 0 0 
-10 -0 0 0 0 
-10 -0 0 0 0 
-10 -0 0 0 0 
-10 -0 0 0 0 
-10 -0 0 0 0 
-10 -0 0 0 0 
-10 -0 0 0 0 
-10 -0 0 0 0 
-10 -0 0 0 0 
-10 -0 0 0 0 
-10 -0 0 0 0 
-10 -0 0 0 0 
-10 -0 0 0 0 
-10 -0 0 0 0 
-10 -0 0 0 0 
-10 -0 0 0 0 
-10 -0 0 0 0 
-10 -0 0 0 0 
-10 -0 0 0 0 
-10 -0 0 0 0 
-10 -0 0 0 0 
-10 -0 0 0 0 
-10 -0 0 0 0 
-10 -0 0 0 0 
-10 -0 0 0 0 
-10 -0 0 0 0 
-10 -0 0 0 0 
-10 -0 0 0 0 
-10 -0 0 0 0 
-10 -0 0 0 0 
-10 -0 0 0 0 
-10 -0 0 0 0 
-10 -0 0 0 0 
-10 -0 0 0 0 
-10 -0 0 0 0 
-10 -0 0 0 0 
-10 -0 0 0 0 
-10 -0 0 0 0 
-10 -0 0 0 0 
-10 -0 0 0 0 
-10 -0 0 0 0 
-10 -0 0 0 0 
-10 -0 0 0 0 
-10 -0 0 0 0 
-10 -0 0 0 0 
-10 -0 0 0 0 
-10 -0 0 0 0 
-10 -0 0 0 0 
-10 -0 0 0 0 
-10 -0 0 0 0 
-10 -0 0 0 0 
-10 -0 0 0 0 
-10 -0 0 0 0 
-10 -0 0 0 0 
-10 -0 0 0 0 
-10 -0 0 0 0 
-10 -0 0 0 0 
-10 -0 0 0 0 
-10 -0 0 0 0 
-10 -0 0 0 0 
-10 -0 0 0 0 
-10 -0 0 0 0 
-10 -0 0 0 0 
-10 -0 0 0 0 
-10 -0 0 0 0 
-10 -0 0 0 0 
-10 -0 0 0 0 
-10 -0 0 0 0 
-10 -0 0 0 0 
-10 -0 0 0 0 
-10 -0 0 0 0 
-10 -0 0 0 0 
-10 -0 0 0 0 
-10 -0 0 0 0 
-10 -0 0 0 0 
-10 -0 0 0 0 
-10 -0 0 0 0 
-10 -0 0 0 0 
-10 -0 0 0 0 
-10 -0 0 0 0 
-10 -0 0 0 0 
-10 -0 0 0 0 
-10 -0 0 0 0 
-10 -0 0 0 0 
-10 -0 0 0 0 
-10 -0 0 0 0 
-10 -0 0 0 0 
-10 -0 0 0 0 
-10 -0 0 0 0 
-10 -0 0 0 0 
-10 -0 0 0 0 
-10 -0 0 0 0 
-10 -0 0 0 0 
-10 -0 0 0 0 
-10 -0 0 0 0 
-10 -0 0 0 0 
-10 -0 0 0 0 
-10 -0 0 0 0 
-10 -0 0 0 0 
-10 -0 0 0 0 
-10 -0 0 0 0 
-10 -0 0 0 0 
-10 -0 0 0 0 
-10 -0 0 0 0 
-10 -0 0 0 0 
-10 -0 0 0 0 
-10 -0 0 0 0 
-10 -0 0 0 0 
-10 -0 0 0 0 
-10 -0 0 0 0 
-10 -0 0 0 0 
-10 -0 0 0 0 
-10 -0 0 0 0 
-10 -0 10 0 0 
-10 -0 10 0 0 
-10 -0 10 0 0 
-10 -0 10 0 0 
-10 -0 10 0 0 
-10 -0 10 0 0 
-10 -0 10 0 0 
-10 -0 10 0 0 
-10 -0 10 0 0 
-10 -0 10 0 0 
-10 -0 10 0 0 
-10 -0 10 0 0 
-10 -0 10 0 0 
-10 -0 10 0 0 
-10 -0 10 0 0 
-10 -0 10 0 0 
-10 -0 10 0 0 
-10 -0 10 0 0 
-10 -0 10 0 0 
-10 -0 10 0 0 
-10 -0 10 0 0 
-10 -0 10 0 0 
-10 -0 10 0 0 
-10 -0 10 0 0 
-10 -0 10 0 0 
-10 -0 10 0 0 
-10 -0 10 0 0 
-10 -0 10 0 0 
-10 -0 10 0 0 
-10 -0 10 0 0 
-10 -0 10 0 0 
-10 -0 10 0 0 
-10 -0 10 0 0 
-10 -0 10 0 0 
-10 -0 10 0 0 
-10 -0 10 0 0 
-10 -0 10 0 0 
-10 -0 10 0 0 
-10 -0 10 0 0 
-10 -0 10 0 0 
-10 -0 10 0 0 
-10 -0 10 0 0 
-10 -0 10 0 0 
-10 -0 10 0 0 
-10 -0 10 0 0 
-10 -0 10 0 0 
-10 -0 10 0 0 
-10 -0 10 0 0 
-10 -0 10 0 0 
-10 -0 10 0 0 
-10 -0 10 0 0 
-10 -0 10 0 0 
-10 -0 10 0 0 
-10 -0 10 0 0 
-10 -0 10 0 0 
-10 -0 10 0 0 
-10 -0 10 0 0 
-10 -0 10 0 0 
-10 -0 10 0 0 
-10 -0 10 0 0 
-10 -0 10 0 0 
-10 -0 10 0 0 
-10 -0 10 0 0 
-10 -0 10 0 0 
-10 -0 10 0 0 
-10 -0 10 10 0 
-10 -0 10 10 0 
-10 -0 10 10 0 
-10 -0 10 10 0 
-10 -0 10 10 0 
-10 -0 10 10 0 
-10 -0 10 10 0 
-10 -0 10 10 0 
-10 -0 10 10 0 
-10 -0 10 10 0 
-10 -0 10 10 0 
-10 -10 10 10 10 
-10 -0 -10 0 0 
-10 -0 -10 0 0 
-10 -0 -10 0 0 
-10 -0 -10 0 0 
-10 -0 -10 0 0 
-10 -0 -10 0 0 
-10 -0 -10 0 0 
-10 -0 -10 0 0 
-10 -0 -10 0 0 
-10 -0 -10 0 0 
-10 -0 -10 0 0 
-10 -0 -10 0 0 
-10 -0 -10 0 0 
-10 -0 -10 0 0 
-10 -0 -10 0 0 
-10 -0 -10 0 0 
-10 -0 -10 0 0 
-10 -0 -10 0 0 
-10 -0 -10 0 0 
-10 -0 -10 0 0 
-10 -0 -10 0 0 
-10 -0 -10 0 0 
-10 -0 -10 0 0 
-10 -0 -10 0 0 
-10 -0 -10 0 0 
-10 -0 -10 0 0 
-10 -0 -10 0 0 
-10 -0 -10 0 0 
-10 -0 -10 0 0 
-10 -0 -10 0 0 
-10 -0 -10 0 0 
-10 -0 -10 0 0 
-10 -0 -10 0 0 
-10 -0 -10 0 0 
-10 -0 -10 0 0 
-10 -0 -10 0 0 
-10 -0 -10 0 0 
-10 -0 -10 0 0 
-10 -0 -10 0 0 
-10 -0 -10 0 0 
-10 -0 -10 0 0 
-10 -0 -10 0 0 
-10 -0 -10 0 0 
-10 -0 -10 0 0 
-10 -0 -10 0 0 
-10 -0 -10 0 0 
-10 -0 -10 0 0 
-10 -0 -10 0 0 
-10 -0 -10 0 0 
-10 -0 -10 0 0 
-10 -0 -10 0 0 
-10 -0 -10 0 0 
-10 -0 -10 0 0 
-10 -0 -10 0 0 
-10 -0 -10 0 0 
-10 -0 -10 0 0 
-10 -0 -10 0 0 
-10 -0 -10 0 0 
-10 -0 -10 0 0 
-10 -0 -10 0 0 
-10 -0 -10 0 0 
-10 -0 -10 0 0 
-10 -0 -10 0 0 
-10 -0 -10 0 0 
-10 -0 -10 0 0 
-10 -0 -10 10 0 
-10 -0 -10 10 0 
-10 -0 -10 10 0 
-10 -0 -10 10 0 
-10 -0 -10 10 0 
-10 -0 -10 10 0 
-10 -0 -10 10 0 
-10 -0 -10 10 0 
-10 -0 -10 10 0 
-10 -0 -10 10 0 
-10 -0 -10 10 0 
-10 -10 -10 10 10 
-10 -0 -10 -10 0 
-10 -0 -10 -10 0 
-10 -0 -10 -10 0 
-10 -0 -10 -10 0 
-10 -0 -10 -10 0 
-10 -0 -10 -10 0 
-10 -0 -10 -10 0 
-10 -0 -10 -10 0 
-10 -0 -10 -10 0 
-10 -0 -10 -10 0 
-10 -0 -10 -10 0 
-10 -10 -10 -10 10 
-10 -10 -10 -10 -10 
