svm_type c_svc
kernel_type rbf
gamma 0
nr_class 4
total_sv 320
rho 1 -1 -1 -1 -1 -1
label 1 0 2 3
nr_sv 157 157 5 1
SV
10 0 0 
10 0 0 
10 0 0 
10 0 0 
10 0 0 
10 0 0 
10 0 0 
10 0 0 
10 0 0 
10 0 0 
10 0 0 
10 0 0 
10 0 0 
10 0 0 
10 0 0 
10 0 0 
10 0 0 
10 0 0 
10 0 0 
10 0 0 
10 0 0 
10 0 0 
10 0 0 
10 0 0 
10 0 0 
10 0 0 
10 0 0 
10 0 0 
10 0 0 
10 0 0 
10 0 0 
10 0 0 
10 0 0 
10 0 0 
10 0 0 
10 0 0 
10 0 0 
10 0 0 
10 0 0 
10 0 0 
10 0 0 
10 0 0 
10 0 0 
10 0 0 
10 0 0 
10 0 0 
10 0 0 
10 0 0 
10 0 0 
10 0 0 
10 0 0 
10 0 0 
10 0 0 
10 0 0 
10 0 0 
10 0 0 
10 0 0 
10 0 0 
10 0 0 
10 0 0 
10 0 0 
10 0 0 
10 0 0 
10 0 0 
10 0 0 
10 0 0 
10 0 0 
10 0 0 
10 0 0 
10 0 0 
10 0 0 
10 0 0 
10 0 0 
10 0 0 
10 0 0 
10 0 0 
10 0 0 
10 0 0 
10 0 0 
10 0 0 
10 0 0 
10 0 0 
10 0 0 
10 0 0 
10 0 0 
10 0 0 
10 0 0 
10 0 0 
10 0 0 
10 0 0 
10 0 0 
10 0 0 
10 0 0 
10 0 0 
10 0 0 
10 0 0 
10 0 0 
10 0 0 
10 0 0 
10 0 0 
10 0 0 
10 0 0 
10 0 0 
10 0 0 
10 0 0 
10 0 0 
10 0 0 
10 0 0 
10 0 0 
10 0 0 
10 0 0 
10 0 0 
10 0 0 
10 0 0 
10 0 0 
10 0 0 
10 0 0 
10 0 0 
10 0 0 
10 0 0 
10 0 0 
10 0 0 
10 0 0 
10 0 0 
10 0 0 
10 0 0 
10 0 0 
10 0 0 
10 0 0 
10 0 0 
10 0 0 
10 0 0 
10 0 0 
10 0 0 
10 0 0 
10 0 0 
10 0 0 
10 0 0 
10 0 0 
10 0 0 
10 0 0 
10 0 0 
10 0 0 
10 0 0 
10 0 0 
10 0 0 
10 0 0 
10 0 0 
10 0 0 
10 0 0 
10 0 0 
10 0 0 
10 10 0 
10 10 0 
10 10 0 
10 10 0 
10 10 10 
-10 0 0 
-10 0 0 
-10 0 0 
-10 0 0 
-10 0 0 
-10 0 0 
-10 0 0 
-10 0 0 
-10 0 0 
-10 0 0 
-10 0 0 
-10 0 0 
-10 0 0 
-10 0 0 
-10 0 0 
-10 0 0 
-10 0 0 
-10 0 0 
-10 0 0 
-10 0 0 
-10 0 0 
-10 0 0 
-10 0 0 
-10 0 0 
-10 0 0 
-10 0 0 
-10 0 0 
-10 0 0 
-10 0 0 
-10 0 0 
-10 0 0 
-10 0 0 
-10 0 0 
-10 0 0 
-10 0 0 
-10 0 0 
-10 0 0 
-10 0 0 
-10 0 0 
-10 0 0 
-10 0 0 
-10 0 0 
-10 0 0 
-10 0 0 
-10 0 0 
-10 0 0 
-10 0 0 
-10 0 0 
-10 0 0 
-10 0 0 
-10 0 0 
-10 0 0 
-10 0 0 
-10 0 0 
-10 0 0 
-10 0 0 
-10 0 0 
-10 0 0 
-10 0 0 
-10 0 0 
-10 0 0 
-10 0 0 
-10 0 0 
-10 0 0 
-10 0 0 
-10 0 0 
-10 0 0 
-10 0 0 
-10 0 0 
-10 0 0 
-10 0 0 
-10 0 0 
-10 0 0 
-10 0 0 
-10 0 0 
-10 0 0 
-10 0 0 
-10 0 0 
-10 0 0 
-10 0 0 
-10 0 0 
-10 0 0 
-10 0 0 
-10 0 0 
-10 0 0 
-10 0 0 
-10 0 0 
-10 0 0 
-10 0 0 
-10 0 0 
-10 0 0 
-10 0 0 
-10 0 0 
-10 0 0 
-10 0 0 
-10 0 0 
-10 0 0 
-10 0 0 
-10 0 0 
-10 0 0 
-10 0 0 
-10 0 0 
-10 0 0 
-10 0 0 
-10 0 0 
-10 0 0 
-10 0 0 
-10 0 0 
-10 0 0 
-10 0 0 
-10 0 0 
-10 0 0 
-10 0 0 
-10 0 0 
-10 0 0 
-10 0 0 
-10 0 0 
-10 0 0 
-10 0 0 
-10 0 0 
-10 0 0 
-10 0 0 
-10 0 0 
-10 0 0 
-10 0 0 
-10 0 0 
-10 0 0 
-10 0 0 
-10 0 0 
-10 0 0 
-10 0 0 
-10 0 0 
-10 0 0 
-10 0 0 
-10 0 0 
-10 0 0 
-10 0 0 
-10 0 0 
-10 0 0 
-10 0 0 
-10 0 0 
-10 0 0 
-10 0 0 
-10 0 0 
-10 0 0 
-10 0 0 
-10 0 0 
-10 0 0 
-10 0 0 
-10 0 0 
-10 0 0 
-10 0 0 
-10 10 0 
-10 10 0 
-10 10 0 
-10 10 0 
-10 10 10 
-10 -10 0 
-10 -10 0 
-10 -10 0 
-10 -10 0 
-10 -10 10 
-10 -10 -10 
