svm_type c_svc
kernel_type rbf
gamma 0
nr_class 5
total_sv 986
rho -1 -1 -1 -1 -1 -1 -1 -1 -1 -1
label 0 1 2 3 4
nr_sv 472 472 31 8 3
SV
10 0 0 0 
10 0 0 0 
10 0 0 0 
10 0 0 0 
10 0 0 0 
10 0 0 0 
10 0 0 0 
10 0 0 0 
10 0 0 0 
10 0 0 0 
10 0 0 0 
10 0 0 0 
10 0 0 0 
10 0 0 0 
10 0 0 0 
10 0 0 0 
10 0 0 0 
10 0 0 0 
10 0 0 0 
10 0 0 0 
10 0 0 0 
10 0 0 0 
10 0 0 0 
10 0 0 0 
10 0 0 0 
10 0 0 0 
10 0 0 0 
10 0 0 0 
10 0 0 0 
10 0 0 0 
10 0 0 0 
10 0 0 0 
10 0 0 0 
10 0 0 0 
10 0 0 0 
10 0 0 0 
10 0 0 0 
10 0 0 0 
10 0 0 0 
10 0 0 0 
10 0 0 0 
10 0 0 0 
10 0 0 0 
10 0 0 0 
10 0 0 0 
10 0 0 0 
10 0 0 0 
10 0 0 0 
10 0 0 0 
10 0 0 0 
10 0 0 0 
10 0 0 0 
10 0 0 0 
10 0 0 0 
10 0 0 0 
10 0 0 0 
10 0 0 0 
10 0 0 0 
10 0 0 0 
10 0 0 0 
10 0 0 0 
10 0 0 0 
10 0 0 0 
10 0 0 0 
10 0 0 0 
10 0 0 0 
10 0 0 0 
10 0 0 0 
10 0 0 0 
10 0 0 0 
10 0 0 0 
10 0 0 0 
10 0 0 0 
10 0 0 0 
10 0 0 0 
10 0 0 0 
10 0 0 0 
10 0 0 0 
10 0 0 0 
10 0 0 0 
10 0 0 0 
10 0 0 0 
10 0 0 0 
10 0 0 0 
10 0 0 0 
10 0 0 0 
10 0 0 0 
10 0 0 0 
10 0 0 0 
10 0 0 0 
10 0 0 0 
10 0 0 0 
10 0 0 0 
10 0 0 0 
10 0 0 0 
10 0 0 0 
10 0 0 0 
10 0 0 0 
10 0 0 0 
10 0 0 0 
10 0 0 0 
10 0 0 0 
10 0 0 0 
10 0 0 0 
10 0 0 0 
10 0 0 0 
10 0 0 0 
10 0 0 0 
10 0 0 0 
10 0 0 0 
10 0 0 0 
10 0 0 0 
10 0 0 0 
10 0 0 0 
10 0 0 0 
10 0 0 0 
10 0 0 0 
10 0 0 0 
10 0 0 0 
10 0 0 0 
10 0 0 0 
10 0 0 0 
10 0 0 0 
10 0 0 0 
10 0 0 0 
10 0 0 0 
10 0 0 0 
10 0 0 0 
10 0 0 0 
10 0 0 0 
10 0 0 0 
10 0 0 0 
10 0 0 0 
10 0 0 0 
10 0 0 0 
10 0 0 0 
10 0 0 0 
10 0 0 0 
10 0 0 0 
10 0 0 0 
10 0 0 0 
10 0 0 0 
10 0 0 0 
10 0 0 0 
10 0 0 0 
10 0 0 0 
10 0 0 0 
10 0 0 0 
10 0 0 0 
10 0 0 0 
10 0 0 0 
10 0 0 0 
10 0 0 0 
10 0 0 0 
10 0 0 0 
10 0 0 0 
10 0 0 0 
10 0 0 0 
10 0 0 0 
10 0 0 0 
10 0 0 0 
10 0 0 0 
10 0 0 0 
10 0 0 0 
10 0 0 0 
10 0 0 0 
10 0 0 0 
10 0 0 0 
10 0 0 0 
10 0 0 0 
10 0 0 0 
10 0 0 0 
10 0 0 0 
10 0 0 0 
10 0 0 0 
10 0 0 0 
10 0 0 0 
10 0 0 0 
10 0 0 0 
10 0 0 0 
10 0 0 0 
10 0 0 0 
10 0 0 0 
10 0 0 0 
10 0 0 0 
10 0 0 0 
10 0 0 0 
10 0 0 0 
10 0 0 0 
10 0 0 0 
10 0 0 0 
10 0 0 0 
10 0 0 0 
10 0 0 0 
10 0 0 0 
10 0 0 0 
10 0 0 0 
10 0 0 0 
10 0 0 0 
10 0 0 0 
10 0 0 0 
10 0 0 0 
10 0 0 0 
10 0 0 0 
10 0 0 0 
10 0 0 0 
10 0 0 0 
10 0 0 0 
10 0 0 0 
10 0 0 0 
10 0 0 0 
10 0 0 0 
10 0 0 0 
10 0 0 0 
10 0 0 0 
10 0 0 0 
10 0 0 0 
10 0 0 0 
10 0 0 0 
10 0 0 0 
10 0 0 0 
10 0 0 0 
10 0 0 0 
10 0 0 0 
10 0 0 0 
10 0 0 0 
10 0 0 0 
10 0 0 0 
10 0 0 0 
10 0 0 0 
10 0 0 0 
10 0 0 0 
10 0 0 0 
10 0 0 0 
10 0 0 0 
10 0 0 0 
10 0 0 0 
10 0 0 0 
10 0 0 0 
10 0 0 0 
10 0 0 0 
10 0 0 0 
10 0 0 0 
10 0 0 0 
10 0 0 0 
10 0 0 0 
10 0 0 0 
10 0 0 0 
10 0 0 0 
10 0 0 0 
10 0 0 0 
10 0 0 0 
10 0 0 0 
10 0 0 0 
10 0 0 0 
10 0 0 0 
10 0 0 0 
10 0 0 0 
10 0 0 0 
10 0 0 0 
10 0 0 0 
10 0 0 0 
10 0 0 0 
10 0 0 0 
10 0 0 0 
10 0 0 0 
10 0 0 0 
10 0 0 0 
10 0 0 0 
10 0 0 0 
10 0 0 0 
10 0 0 0 
10 0 0 0 
10 0 0 0 
10 0 0 0 
10 0 0 0 
10 0 0 0 
10 0 0 0 
10 0 0 0 
10 0 0 0 
10 0 0 0 
10 0 0 0 
10 0 0 0 
10 0 0 0 
10 0 0 0 
10 0 0 0 
10 0 0 0 
10 0 0 0 
10 0 0 0 
10 0 0 0 
10 0 0 0 
10 0 0 0 
10 0 0 0 
10 0 0 0 
10 0 0 0 
10 0 0 0 
10 0 0 0 
10 0 0 0 
10 0 0 0 
10 0 0 0 
10 0 0 0 
10 0 0 0 
10 0 0 0 
10 0 0 0 
10 0 0 0 
10 0 0 0 
10 0 0 0 
10 0 0 0 
10 0 0 0 
10 0 0 0 
10 0 0 0 
10 0 0 0 
10 0 0 0 
10 0 0 0 
10 0 0 0 
10 0 0 0 
10 0 0 0 
10 0 0 0 
10 0 0 0 
10 0 0 0 
10 0 0 0 
10 0 0 0 
10 0 0 0 
10 0 0 0 
10 0 0 0 
10 0 0 0 
10 0 0 0 
10 0 0 0 
10 0 0 0 
10 0 0 0 
10 0 0 0 
10 0 0 0 
10 0 0 0 
10 0 0 0 
10 0 0 0 
10 0 0 0 
10 0 0 0 
10 0 0 0 
10 0 0 0 
10 0 0 0 
10 0 0 0 
10 0 0 0 
10 0 0 0 
10 0 0 0 
10 0 0 0 
10 0 0 0 
10 0 0 0 
10 0 0 0 
10 0 0 0 
10 0 0 0 
10 0 0 0 
10 0 0 0 
10 0 0 0 
10 0 0 0 
10 0 0 0 
10 0 0 0 
10 0 0 0 
10 0 0 0 
10 0 0 0 
10 0 0 0 
10 0 0 0 
10 0 0 0 
10 0 0 0 
10 0 0 0 
10 0 0 0 
10 0 0 0 
10 0 0 0 
10 0 0 0 
10 0 0 0 
10 0 0 0 
10 0 0 0 
10 0 0 0 
10 0 0 0 
10 0 0 0 
10 0 0 0 
10 0 0 0 
10 0 0 0 
10 0 0 0 
10 0 0 0 
10 0 0 0 
10 0 0 0 
10 0 0 0 
10 0 0 0 
10 0 0 0 
10 0 0 0 
10 0 0 0 
10 0 0 0 
10 0 0 0 
10 0 0 0 
10 0 0 0 
10 0 0 0 
10 0 0 0 
10 0 0 0 
10 0 0 0 
10 0 0 0 
10 0 0 0 
10 0 0 0 
10 0 0 0 
10 0 0 0 
10 0 0 0 
10 0 0 0 
10 0 0 0 
10 0 0 0 
10 0 0 0 
10 0 0 0 
10 0 0 0 
10 0 0 0 
10 0 0 0 
10 0 0 0 
10 0 0 0 
10 0 0 0 
10 0 0 0 
10 0 0 0 
10 0 0 0 
10 0 0 0 
10 0 0 0 
10 0 0 0 
10 0 0 0 
10 0 0 0 
10 0 0 0 
10 0 0 0 
10 0 0 0 
10 0 0 0 
10 0 0 0 
10 0 0 0 
10 0 0 0 
10 0 0 0 
10 0 0 0 
10 0 0 0 
10 0 0 0 
10 0 0 0 
10 0 0 0 
10 0 0 0 
10 0 0 0 
10 0 0 0 
10 0 0 0 
10 0 0 0 
10 0 0 0 
10 0 0 0 
10 0 0 0 
10 0 0 0 
10 10 0 0 
10 10 0 0 
10 10 0 0 
10 10 0 0 
10 10 0 0 
10 10 0 0 
10 10 0 0 
10 10 0 0 
10 10 0 0 
10 10 0 0 
10 10 0 0 
10 10 0 0 
10 10 0 0 
10 10 0 0 
10 10 0 0 
10 10 0 0 
10 10 0 0 
10 10 0 0 
10 10 0 0 
10 10 0 0 
10 10 0 0 
10 10 0 0 
10 10 0 0 
10 10 10 0 
10 10 10 0 
10 10 10 0 
10 10 10 0 
10 10 10 0 
10 10 10 10 
10 10 10 10 
10 10 10 10 
-10 0 0 0 
-10 0 0 0 
-10 0 0 0 
-10 0 0 0 
-10 0 0 0 
-10 0 0 0 
-10 0 0 0 
-10 0 0 0 
-10 0 0 0 
-10 0 0 0 
-10 0 0 0 
-10 0 0 0 
-10 0 0 0 
-10 0 0 0 
-10 0 0 0 
-10 0 0 0 
-10 0 0 0 
-10 0 0 0 
-10 0 0 0 
-10 0 0 0 
-10 0 0 0 
-10 0 0 0 
-10 0 0 0 
-10 0 0 0 
-10 0 0 0 
-10 0 0 0 
-10 0 0 0 
-10 0 0 0 
-10 0 0 0 
-10 0 0 0 
-10 0 0 0 
-10 0 0 0 
-10 0 0 0 
-10 0 0 0 
-10 0 0 0 
-10 0 0 0 
-10 0 0 0 
-10 0 0 0 
-10 0 0 0 
-10 0 0 0 
-10 0 0 0 
-10 0 0 0 
-10 0 0 0 
-10 0 0 0 
-10 0 0 0 
-10 0 0 0 
-10 0 0 0 
-10 0 0 0 
-10 0 0 0 
-10 0 0 0 
-10 0 0 0 
-10 0 0 0 
-10 0 0 0 
-10 0 0 0 
-10 0 0 0 
-10 0 0 0 
-10 0 0 0 
-10 0 0 0 
-10 0 0 0 
-10 0 0 0 
-10 0 0 0 
-10 0 0 0 
-10 0 0 0 
-10 0 0 0 
-10 0 0 0 
-10 0 0 0 
-10 0 0 0 
-10 0 0 0 
-10 0 0 0 
-10 0 0 0 
-10 0 0 0 
-10 0 0 0 
-10 0 0 0 
-10 0 0 0 
-10 0 0 0 
-10 0 0 0 
-10 0 0 0 
-10 0 0 0 
-10 0 0 0 
-10 0 0 0 
-10 0 0 0 
-10 0 0 0 
-10 0 0 0 
-10 0 0 0 
-10 0 0 0 
-10 0 0 0 
-10 0 0 0 
-10 0 0 0 
-10 0 0 0 
-10 0 0 0 
-10 0 0 0 
-10 0 0 0 
-10 0 0 0 
-10 0 0 0 
-10 0 0 0 
-10 0 0 0 
-10 0 0 0 
-10 0 0 0 
-10 0 0 0 
-10 0 0 0 
-10 0 0 0 
-10 0 0 0 
-10 0 0 0 
-10 0 0 0 
-10 0 0 0 
-10 0 0 0 
-10 0 0 0 
-10 0 0 0 
-10 0 0 0 
-10 0 0 0 
-10 0 0 0 
-10 0 0 0 
-10 0 0 0 
-10 0 0 0 
-10 0 0 0 
-10 0 0 0 
-10 0 0 0 
-10 0 0 0 
-10 0 0 0 
-10 0 0 0 
-10 0 0 0 
-10 0 0 0 
-10 0 0 0 
-10 0 0 0 
-10 0 0 0 
-10 0 0 0 
-10 0 0 0 
-10 0 0 0 
-10 0 0 0 
-10 0 0 0 
-10 0 0 0 
-10 0 0 0 
-10 0 0 0 
-10 0 0 0 
-10 0 0 0 
-10 0 0 0 
-10 0 0 0 
-10 0 0 0 
-10 0 0 0 
-10 0 0 0 
-10 0 0 0 
-10 0 0 0 
-10 0 0 0 
-10 0 0 0 
-10 0 0 0 
-10 0 0 0 
-10 0 0 0 
-10 0 0 0 
-10 0 0 0 
-10 0 0 0 
-10 0 0 0 
-10 0 0 0 
-10 0 0 0 
-10 0 0 0 
-10 0 0 0 
-10 0 0 0 
-10 0 0 0 
-10 0 0 0 
-10 0 0 0 
-10 0 0 0 
-10 0 0 0 
-10 0 0 0 
-10 0 0 0 
-10 0 0 0 
-10 0 0 0 
-10 0 0 0 
-10 0 0 0 
-10 0 0 0 
-10 0 0 0 
-10 0 0 0 
-10 0 0 0 
-10 0 0 0 
-10 0 0 0 
-10 0 0 0 
-10 0 0 0 
-10 0 0 0 
-10 0 0 0 
-10 0 0 0 
-10 0 0 0 
-10 0 0 0 
-10 0 0 0 
-10 0 0 0 
-10 0 0 0 
-10 0 0 0 
-10 0 0 0 
-10 0 0 0 
-10 0 0 0 
-10 0 0 0 
-10 0 0 0 
-10 0 0 0 
-10 0 0 0 
-10 0 0 0 
-10 0 0 0 
-10 0 0 0 
-10 0 0 0 
-10 0 0 0 
-10 0 0 0 
-10 0 0 0 
-10 0 0 0 
-10 0 0 0 
-10 0 0 0 
-10 0 0 0 
-10 0 0 0 
-10 0 0 0 
-10 0 0 0 
-10 0 0 0 
-10 0 0 0 
-10 0 0 0 
-10 0 0 0 
-10 0 0 0 
-10 0 0 0 
-10 0 0 0 
-10 0 0 0 
-10 0 0 0 
-10 0 0 0 
-10 0 0 0 
-10 0 0 0 
-10 0 0 0 
-10 0 0 0 
-10 0 0 0 
-10 0 0 0 
-10 0 0 0 
-10 0 0 0 
-10 0 0 0 
-10 0 0 0 
-10 0 0 0 
-10 0 0 0 
-10 0 0 0 
-10 0 0 0 
-10 0 0 0 
-10 0 0 0 
-10 0 0 0 
-10 0 0 0 
-10 0 0 0 
-10 0 0 0 
-10 0 0 0 
-10 0 0 0 
-10 0 0 0 
-10 0 0 0 
-10 0 0 0 
-10 0 0 0 
-10 0 0 0 
-10 0 0 0 
-10 0 0 0 
-10 0 0 0 
-10 0 0 0 
-10 0 0 0 
-10 0 0 0 
-10 0 0 0 
-10 0 0 0 
-10 0 0 0 
-10 0 0 0 
-10 0 0 0 
-10 0 0 0 
-10 0 0 0 
-10 0 0 0 
-10 0 0 0 
-10 0 0 0 
-10 0 0 0 
-10 0 0 0 
-10 0 0 0 
-10 0 0 0 
-10 0 0 0 
-10 0 0 0 
-10 0 0 0 
-10 0 0 0 
-10 0 0 0 
-10 0 0 0 
-10 0 0 0 
-10 0 0 0 
-10 0 0 0 
-10 0 0 0 
-10 0 0 0 
-10 0 0 0 
-10 0 0 0 
-10 0 0 0 
-10 0 0 0 
-10 0 0 0 
-10 0 0 0 
-10 0 0 0 
-10 0 0 0 
-10 0 0 0 
-10 0 0 0 
-10 0 0 0 
-10 0 0 0 
-10 0 0 0 
-10 0 0 0 
-10 0 0 0 
-10 0 0 0 
-10 0 0 0 
-10 0 0 0 
-10 0 0 0 
-10 0 0 0 
-10 0 0 0 
-10 0 0 0 
-10 0 0 0 
-10 0 0 0 
-10 0 0 0 
-10 0 0 0 
-10 0 0 0 
-10 0 0 0 
-10 0 0 0 
-10 0 0 0 
-10 0 0 0 
-10 0 0 0 
-10 0 0 0 
-10 0 0 0 
-10 0 0 0 
-10 0 0 0 
-10 0 0 0 
-10 0 0 0 
-10 0 0 0 
-10 0 0 0 
-10 0 0 0 
-10 0 0 0 
-10 0 0 0 
-10 0 0 0 
-10 0 0 0 
-10 0 0 0 
-10 0 0 0 
-10 0 0 0 
-10 0 0 0 
-10 0 0 0 
-10 0 0 0 
-10 0 0 0 
-10 0 0 0 
-10 0 0 0 
-10 0 0 0 
-10 0 0 0 
-10 0 0 0 
-10 0 0 0 
-10 0 0 0 
-10 0 0 0 
-10 0 0 0 
-10 0 0 0 
-10 0 0 0 
-10 0 0 0 
-10 0 0 0 
-10 0 0 0 
-10 0 0 0 
-10 0 0 0 
-10 0 0 0 
-10 0 0 0 
-10 0 0 0 
-10 0 0 0 
-10 0 0 0 
-10 0 0 0 
-10 0 0 0 
-10 0 0 0 
-10 0 0 0 
-10 0 0 0 
-10 0 0 0 
-10 0 0 0 
-10 0 0 0 
-10 0 0 0 
-10 0 0 0 
-10 0 0 0 
-10 0 0 0 
-10 0 0 0 
-10 0 0 0 
-10 0 0 0 
-10 0 0 0 
-10 0 0 0 
-10 0 0 0 
-10 0 0 0 
-10 0 0 0 
-10 0 0 0 
-10 0 0 0 
-10 0 0 0 
-10 0 0 0 
-10 0 0 0 
-10 0 0 0 
-10 0 0 0 
-10 0 0 0 
-10 0 0 0 
-10 0 0 0 
-10 0 0 0 
-10 0 0 0 
-10 0 0 0 
-10 0 0 0 
-10 0 0 0 
-10 0 0 0 
-10 0 0 0 
-10 0 0 0 
-10 0 0 0 
-10 0 0 0 
-10 0 0 0 
-10 0 0 0 
-10 0 0 0 
-10 0 0 0 
-10 0 0 0 
-10 0 0 0 
-10 0 0 0 
-10 0 0 0 
-10 0 0 0 
-10 0 0 0 
-10 0 0 0 
-10 0 0 0 
-10 0 0 0 
-10 0 0 0 
-10 0 0 0 
-10 0 0 0 
-10 0 0 0 
-10 0 0 0 
-10 0 0 0 
-10 0 0 0 
-10 0 0 0 
-10 0 0 0 
-10 0 0 0 
-10 0 0 0 
-10 0 0 0 
-10 0 0 0 
-10 0 0 0 
-10 0 0 0 
-10 0 0 0 
-10 0 0 0 
-10 0 0 0 
-10 0 0 0 
-10 0 0 0 
-10 0 0 0 
-10 0 0 0 
-10 0 0 0 
-10 0 0 0 
-10 0 0 0 
-10 0 0 0 
-10 0 0 0 
-10 0 0 0 
-10 0 0 0 
-10 0 0 0 
-10 0 0 0 
-10 0 0 0 
-10 0 0 0 
-10 0 0 0 
-10 0 0 0 
-10 0 0 0 
-10 0 0 0 
-10 0 0 0 
-10 0 0 0 
-10 0 0 0 
-10 0 0 0 
-10 0 0 0 
-10 10 0 0 
-10 10 0 0 
-10 10 0 0 
-10 10 0 0 
-10 10 0 0 
-10 10 0 0 
-10 10 0 0 
-10 10 0 0 
-10 10 0 0 
-10 10 0 0 
-10 10 0 0 
-10 10 0 0 
-10 10 0 0 
-10 10 0 0 
-10 10 0 0 
-10 10 0 0 
-10 10 0 0 
-10 10 0 0 
-10 10 0 0 
-10 10 0 0 
-10 10 0 0 
-10 10 0 0 
-10 10 0 0 
-10 10 10 0 
-10 10 10 0 
-10 10 10 0 
-10 10 10 0 
-10 10 10 0 
-10 10 10 10 
-10 10 10 10 
-10 10 10 10 
-10 -10 0 0 
-10 -10 0 0 
-10 -10 0 0 
-10 -10 0 0 
-10 -10 0 0 
-10 -10 0 0 
-10 -10 0 0 
-10 -10 0 0 
-10 -10 0 0 
-10 -10 0 0 
-10 -10 0 0 
-10 -10 0 0 
-10 -10 0 0 
-10 -10 0 0 
-10 -10 0 0 
-10 -10 0 0 
-10 -10 0 0 
-10 -10 0 0 
-10 -10 0 0 
-10 -10 0 0 
-10 -10 0 0 
-10 -10 0 0 
-10 -10 0 0 
-10 -10 10 0 
-10 -10 10 0 
-10 -10 10 0 
-10 -10 10 0 
-10 -10 10 0 
-10 -10 10 10 
-10 -10 10 10 
-10 -10 10 10 
-10 -10 -10 0 
-10 -10 -10 0 
-10 -10 -10 0 
-10 -10 -10 0 
-10 -10 -10 0 
-10 -10 -10 10 
-10 -10 -10 10 
-10 -10 -10 10 
-10 -10 -10 -10 
-10 -10 -10 -10 
-10 -10 -10 -10 
